<?xml version="1.0"?>
<opencv_storage>
<my_svm type_id="opencv-ml-svm">
  <svm_type>C_SVC</svm_type>
  <kernel><type>LINEAR</type></kernel>
  <C>1.0000000000000000e-02</C>
  <term_criteria><epsilon>1.1920928955078125e-07</epsilon>
    <iterations>1000</iterations></term_criteria>
  <var_all>10800</var_all>
  <var_count>10800</var_count>
  <class_count>2</class_count>
  <class_labels type_id="opencv-matrix">
    <rows>1</rows>
    <cols>2</cols>
    <dt>i</dt>
    <data>
      -1 1</data></class_labels>
  <sv_total>1</sv_total>
  <support_vectors>
    <_>
      -3.21320891e-02 -1.24413325e-02 7.63294240e-03 9.61827766e-03
      1.91903636e-02 2.65985727e-02 2.11690683e-02 -1.99118233e-03
      3.20322230e-03 -6.50096126e-03 -2.52559949e-02 -2.10003648e-02
      -4.04333249e-02 -3.40854451e-02 -1.80883650e-02 -4.76827659e-03
      1.13330164e-03 2.63644066e-02 2.56913230e-02 8.46922211e-03
      9.75447427e-03 -4.10114741e-03 -2.62981448e-02 -1.87320858e-02
      -6.00537956e-02 -2.98915766e-02 3.74517334e-03 1.87085271e-02
      2.36294828e-02 2.57919692e-02 1.79071501e-02 -1.72395259e-02
      -1.15437713e-02 -2.25893199e-03 -3.74490060e-02 -4.02957909e-02
      -4.86231223e-02 -5.46330698e-02 -1.54959867e-02 -2.95834825e-03
      -1.65417101e-02 1.21926377e-02 1.96047947e-02 1.05622760e-03
      1.11680850e-03 9.08555556e-03 -2.27805525e-02 -2.66293585e-02
      -3.77506316e-02 -3.19672935e-02 -1.02540469e-02 2.97133485e-03
      1.41213825e-02 3.44217680e-02 2.93644555e-02 1.14321932e-02
      5.72161796e-03 -9.99543723e-03 -2.50230823e-02 -2.94447765e-02
      -4.19420600e-02 -2.77238563e-02 3.08560277e-03 1.29915886e-02
      2.10936237e-02 2.14532204e-02 1.83618367e-02 1.09558161e-02
      -1.60271488e-03 -8.83595273e-03 -5.09169623e-02 -2.92857662e-02
      -3.69198844e-02 -4.61543426e-02 -1.48712341e-02 2.88132182e-03
      -5.59026003e-03 2.02075969e-02 2.69956049e-02 6.92602480e-03
      6.06627855e-03 2.28961301e-03 -2.59780101e-02 -3.32032889e-02
      -3.37407738e-02 -3.61877978e-02 2.17479980e-03 8.25700536e-03
      1.86188903e-03 7.46066263e-03 3.21304938e-03 1.06049217e-02
      -7.56447320e-04 -6.54162373e-03 -4.45083156e-02 -2.82736253e-02
      -2.37294268e-02 -1.47557426e-02 1.11361137e-02 1.10097360e-02
      1.16905207e-02 1.36301070e-02 1.65467411e-02 1.78358052e-02
      2.62002950e-03 -1.07341716e-02 -4.56024259e-02 -3.07701007e-02
      -1.14303613e-02 -1.86954997e-02 6.76255068e-03 1.19193913e-02
      1.84232891e-02 2.40544397e-02 8.46589729e-03 5.44445007e-04
      -2.13176361e-03 -8.20122845e-03 -4.62425202e-02 -3.43706831e-02
      -2.61848066e-02 -2.17671748e-02 9.97060258e-03 1.39874667e-02
      2.91891105e-04 -2.73825205e-03 -1.14485426e-02 7.11439224e-03
      5.49557945e-03 -7.64465332e-03 -4.10625860e-02 -2.24651378e-02
      -3.26187495e-04 -7.37013994e-03 1.10173523e-02 1.67301241e-02
      1.84303746e-02 -3.77240870e-03 -2.14500204e-02 -6.86914241e-03
      3.09839612e-03 -6.31340174e-03 -4.61259633e-02 -1.75656565e-02
      -1.48416758e-02 -1.74337979e-02 4.90401813e-04 5.53693203e-03
      1.71470102e-02 2.06257924e-02 -6.91352971e-03 -4.46812762e-03
      -1.03727141e-02 -4.34308592e-03 -3.46384905e-02 -3.14793475e-02
      -9.26354527e-03 -2.04882715e-02 -8.99907667e-04 3.28665180e-03
      5.70617989e-03 2.29247175e-02 1.34036867e-02 2.20851507e-02
      1.06836529e-02 8.59899540e-03 -2.52426509e-02 -2.25573033e-02
      1.51153700e-03 -5.40295616e-03 1.02487784e-02 6.54281816e-03
      1.46474186e-02 -1.17103187e-02 -2.09826399e-02 -8.87243822e-03
      -1.33468580e-04 -4.04539239e-03 -2.90709101e-02 -1.85318068e-02
      -1.16138789e-03 -1.08584361e-02 -5.54195023e-04 6.62012957e-03
      -2.28895806e-04 6.40097540e-03 6.91645732e-03 2.90364400e-03
      -1.57034188e-03 -9.75386892e-03 -3.53106931e-02 -2.40761749e-02
      -2.00044345e-02 -2.44308617e-02 3.80073697e-03 1.20706379e-03
      -4.60827444e-03 2.19715852e-02 2.57469434e-02 1.42666874e-02
      5.92406886e-03 -4.08535497e-03 -2.82004569e-02 -2.49490310e-02
      -8.98633711e-03 -7.36738183e-03 1.03740301e-02 -1.66092126e-03
      -5.16514573e-03 2.45177094e-02 2.22870950e-02 2.79933447e-03
      -3.31515796e-03 -1.62993819e-02 -2.29494851e-02 -2.24108528e-02
      -1.67192221e-02 -3.42783853e-02 -4.90363827e-03 -1.38147571e-03
      -5.45447180e-03 5.78927668e-03 1.12643465e-02 -1.57291989e-03
      -1.39246695e-03 -1.09711299e-02 -3.55644524e-02 -2.88014375e-02
      -2.97509972e-03 -2.07202937e-02 -2.47464632e-03 -5.43235149e-03
      -1.56630483e-02 4.86709177e-04 -9.68893524e-03 -7.07257679e-03
      -6.12340728e-03 -4.26036213e-03 -2.01948527e-02 -7.48521788e-03
      -1.67890936e-02 -2.02104892e-03 1.22399181e-02 1.00149205e-02
      9.48791672e-03 2.73124762e-02 2.17805263e-02 -4.41201404e-03
      -7.23765744e-03 -1.34822680e-02 -1.37986783e-02 -2.16607880e-02
      -3.21587399e-02 -1.29004419e-02 4.69301688e-03 1.22818854e-02
      1.67572554e-02 2.08245218e-02 2.03448255e-02 1.61876865e-02
      -8.24419185e-05 -1.03091290e-02 -1.79235991e-02 -3.37665901e-02
      -1.97582506e-02 -1.79100297e-02 -4.86011757e-03 2.02818611e-03
      -1.83542445e-02 -4.22934769e-03 -1.64255500e-03 8.00085068e-03
      2.95446347e-03 -2.02640868e-03 -1.63340662e-02 -1.70674883e-02
      -3.51375751e-02 -3.09852213e-02 -1.29040256e-02 -9.53331590e-03
      -1.41125238e-02 -2.84700538e-03 8.77345819e-03 1.08465021e-02
      2.17276942e-02 6.74604485e-03 -1.43312654e-02 -3.18015926e-02
      -3.61645184e-02 -2.06403527e-02 8.70585209e-04 1.12902587e-02
      1.18991379e-02 2.24807262e-02 3.37072909e-02 2.41969265e-02
      6.10189512e-03 8.68267845e-03 -1.07807117e-02 -4.34037112e-02
      -3.04537211e-02 -2.66688559e-02 -1.38785472e-04 4.93395841e-03
      7.59602385e-03 1.47493109e-02 3.31782624e-02 2.51337606e-02
      2.03707768e-03 -2.50411103e-03 -3.11507899e-02 -3.83592173e-02
      -2.98118070e-02 -3.95807140e-02 -1.33280484e-02 2.95602949e-03
      -7.49652507e-03 5.64897293e-03 1.51097383e-02 1.36321234e-02
      2.50730738e-02 2.15625018e-02 -1.21879193e-03 -2.68825218e-02
      -2.03950405e-02 -5.16410135e-02 3.94570129e-03 4.60770819e-03
      -3.97340022e-03 -1.30434288e-03 7.00585835e-04 -2.49949191e-03
      1.26528274e-03 3.73322540e-03 -1.14369681e-02 -1.88485794e-02
      -1.80499088e-02 -2.57068593e-02 3.86735261e-03 -2.26059556e-03
      8.42372980e-03 2.72839051e-02 3.40496078e-02 1.23552689e-02
      -7.81859097e-04 -1.27189700e-02 -2.48255599e-02 -2.67118551e-02
      -2.97390688e-02 -1.59775615e-02 9.14306659e-03 -9.80449608e-04
      1.72529463e-02 3.48725505e-02 3.23937908e-02 5.63654862e-03
      6.68017240e-03 -1.80193614e-02 -2.91956365e-02 -3.49294804e-02
      -9.84439347e-03 -2.23226566e-02 1.31553896e-02 5.62389055e-03
      -1.04859658e-03 8.11001693e-04 2.32748059e-03 -6.84325176e-04
      -2.13680440e-03 -6.82030758e-03 -1.00564957e-02 -1.13953174e-04
      -1.41064161e-02 -1.71702337e-02 9.20519885e-03 9.04903933e-03
      1.21084098e-02 2.31064316e-02 1.96604859e-02 -8.30249581e-03
      1.17020449e-02 -5.78814978e-03 -2.81039532e-02 -1.18360100e-02
      -4.89716604e-02 -1.32589322e-02 8.36397335e-03 -4.19145357e-03
      2.22320482e-02 2.99331099e-02 2.79646199e-02 2.44212733e-03
      -8.84734467e-03 -1.19880568e-02 -2.23418772e-02 -4.84115668e-02
      -4.34041843e-02 -2.88642347e-02 1.29654296e-02 1.60299577e-02
      1.23146595e-02 3.45304459e-02 2.62212884e-02 -8.65739770e-03
      -7.54757458e-03 -1.61727071e-02 -2.38624383e-02 -4.91722301e-02
      -3.04704607e-02 -1.10590141e-02 5.80493826e-03 4.28737467e-03
      1.59999803e-02 2.92185694e-02 6.79914653e-03 2.30516610e-03
      -3.09492089e-03 -3.95470764e-03 -3.14590968e-02 -2.68227458e-02
      -2.75303368e-02 -2.85279192e-02 2.12275814e-02 1.40985362e-02
      5.49262809e-03 2.38506328e-02 1.97508559e-02 4.05045575e-04
      7.59817753e-03 -5.96744940e-03 -2.49535982e-02 -2.41701473e-02
      -3.42858359e-02 -1.78148896e-02 1.80358142e-02 1.93954054e-02
      9.26332083e-03 2.35778540e-02 6.67697424e-03 -7.24457623e-03
      8.63945205e-03 -5.88275772e-03 -2.54469514e-02 -3.71766239e-02
      -1.99261401e-02 -1.26699740e-02 1.59540977e-02 1.72384549e-02
      8.23681802e-03 2.42736693e-02 1.13301361e-02 -4.42230515e-03
      9.43282433e-03 -1.44541515e-02 -2.99053434e-02 -2.54250374e-02
      -1.96435675e-02 -1.85972322e-02 2.10450012e-02 1.75878257e-02
      -1.01166023e-02 1.73471887e-02 5.73555101e-03 1.38528994e-03
      2.07428876e-02 1.15225557e-02 -1.10820727e-02 -7.08657131e-03
      1.87804893e-04 -3.08088842e-03 1.75889414e-02 1.47372819e-02
      -7.50364410e-03 1.63892712e-02 1.27968108e-02 -5.94574260e-03
      8.71656835e-03 -1.00390865e-02 -1.58350244e-02 9.33148374e-04
      -2.07977667e-02 -1.66309886e-02 -6.18038408e-04 4.78249323e-03
      1.04776360e-02 2.07804907e-02 1.23579390e-02 3.71364877e-03
      1.11979200e-02 -1.40816802e-02 -2.53490750e-02 -2.75691338e-02
      -1.65179055e-02 -2.19251122e-02 -1.20783690e-02 -1.17586451e-02
      -4.33859735e-04 1.11978520e-02 1.88686643e-02 1.34360595e-02
      1.76220480e-02 1.11004617e-02 -1.14239333e-02 -5.72344381e-03
      -7.00952811e-03 -9.76384431e-03 3.40082822e-03 2.29479279e-03
      1.91519933e-03 9.93189495e-03 2.45517585e-03 -3.87625070e-03
      9.01466608e-03 -1.05057564e-02 -1.94140710e-02 -6.95644785e-03
      2.35563377e-04 -1.63503848e-02 3.31551349e-03 6.88170642e-03
      1.98809034e-03 8.28084443e-03 5.42733120e-03 2.11385032e-03
      1.32745197e-02 2.00752001e-02 -1.02381520e-02 2.97380681e-03
      -1.48046371e-02 -2.57736091e-02 -6.55965041e-03 -1.03088235e-02
      -3.17465258e-03 9.60666686e-03 1.80523824e-02 1.16101233e-02
      1.57924872e-02 1.03848241e-02 7.51574198e-03 -2.16153776e-03
      -3.40344012e-02 -4.05477844e-02 -3.70114902e-03 -4.87513933e-03
      -4.36810451e-03 1.60318948e-02 2.11010538e-02 2.19289586e-02
      1.77392960e-02 2.68834340e-03 -2.12193187e-02 -1.85765307e-02
      -6.34977547e-03 -2.23818254e-02 -2.02277457e-04 -2.15333910e-03
      1.44860242e-03 1.03575243e-02 1.04324031e-03 1.22950515e-02
      1.31149944e-02 1.44011518e-02 -2.58082245e-03 -1.08141126e-02
      -1.88282803e-02 -3.54998447e-02 5.18183038e-03 1.88965239e-02
      7.23376544e-03 8.64638481e-03 5.56029147e-03 9.89279617e-03
      8.95499252e-03 -3.26324441e-03 -1.70436017e-02 -1.05081759e-02
      -2.57571153e-02 -3.64704132e-02 -5.20058582e-03 -2.87158275e-03
      -1.49865216e-03 1.97459236e-02 3.42348814e-02 2.23733392e-02
      1.12661570e-02 -8.26765690e-03 -2.73578446e-02 -2.22086459e-02
      -2.19352301e-02 -3.55423689e-02 -1.04177855e-02 -1.77565441e-02
      -5.96974092e-03 1.39110452e-02 2.33887825e-02 -5.32508083e-03
      3.83552775e-04 -1.03687672e-02 -2.60307211e-02 -2.25178655e-02
      -1.80384517e-02 -2.14394573e-02 1.31651545e-02 1.11202076e-02
      4.46994090e-03 6.79593207e-03 6.17550407e-03 3.21988319e-03
      4.57258662e-04 -1.05342828e-02 -1.67672783e-02 -8.52280762e-03
      -1.42956758e-02 -3.28910016e-02 7.23475649e-04 -1.42159062e-02
      -9.21192020e-03 1.37773817e-02 1.02638621e-02 -1.48320952e-02
      1.22483540e-03 -1.48989419e-02 -1.79211497e-02 -9.82870068e-03
      -2.54041385e-02 -1.30331600e-02 -6.03942480e-03 1.08227897e-02
      6.30930765e-03 1.80693716e-02 2.00738944e-02 -3.92391486e-03
      3.10373027e-03 -2.45664199e-03 -1.26278140e-02 -2.18037497e-02
      -1.80010088e-02 -1.30646778e-02 -2.81989132e-03 2.50272434e-02
      1.16484985e-02 1.14900647e-02 1.30249234e-02 -1.54483821e-02
      -5.03047742e-03 -5.77146327e-03 -2.02354211e-02 -1.49749322e-02
      -8.60828161e-03 -8.75273254e-03 -5.10060648e-03 -6.08229171e-03
      3.29638412e-03 1.58059262e-02 1.40879145e-02 -3.03775189e-03
      5.70997642e-03 -8.52438994e-03 -1.20826857e-02 -9.55747534e-03
      -1.24467742e-02 -1.50828883e-02 -2.67365394e-04 1.05449446e-02
      6.57091243e-03 4.94537642e-03 -4.24462836e-03 -1.41967991e-02
      2.21858779e-03 -1.12556648e-02 -6.22891448e-03 -3.85367754e-03
      -7.52718002e-03 -2.52486169e-02 -1.09900776e-02 1.35388970e-03
      6.23968337e-03 -6.52567437e-03 -3.08302953e-03 -1.31748654e-02
      -4.54164017e-03 -1.81456962e-05 -2.43144203e-02 -4.24782792e-03
      -4.26539853e-02 -2.30178088e-02 2.90909386e-03 5.22124674e-03
      3.81541043e-03 8.87375884e-03 1.73555855e-02 5.92638552e-03
      1.23476163e-02 1.14215713e-03 -8.27881694e-03 -2.06843093e-02
      -1.72107387e-02 -2.43103001e-02 -4.37988108e-03 8.65998026e-03
      3.02408845e-03 -6.92310510e-03 -1.96227543e-02 -1.59266982e-02
      -5.86601906e-03 -1.07844034e-02 -2.61402838e-02 -1.45986713e-02
      -4.50027511e-02 -2.39577983e-02 1.40142231e-03 1.43941806e-03
      1.74682966e-04 1.62837040e-02 9.95530840e-03 3.80028575e-03
      1.59161855e-02 2.88998871e-03 -1.50164431e-02 -4.30232286e-02
      -3.12719271e-02 -1.61391404e-02 1.02895685e-02 2.54223291e-02
      2.65316255e-02 2.23463923e-02 1.70672648e-02 -7.95581006e-03
      -1.20448123e-03 -1.94222538e-03 -9.71599296e-03 -2.02060733e-02
      -2.29527652e-02 -2.62545254e-02 5.68627333e-03 1.71852689e-02
      -5.45331882e-03 1.14883296e-02 1.02456827e-02 -9.05027334e-03
      6.95833005e-03 4.76460345e-03 -1.71994846e-02 -1.34788770e-02
      -2.32178103e-02 -1.57320444e-02 1.18815936e-02 2.35266741e-02
      5.92423789e-03 2.20844354e-02 1.86384730e-02 -1.87951978e-02
      -1.16661293e-02 -1.03983805e-02 -6.67111576e-03 -2.07415465e-02
      -9.99584235e-03 -2.05144584e-02 -1.14625390e-03 9.45095066e-03
      -1.80942267e-02 4.83945431e-03 -2.11462728e-03 -3.06949019e-02
      -3.31386342e-03 -4.90075164e-03 -5.68612758e-03 -8.89563560e-03
      -2.04722341e-02 -1.66066978e-02 6.37025340e-03 1.02889119e-02
      3.46893817e-03 1.44234179e-02 1.01003842e-02 -9.05857235e-03
      1.07832579e-02 4.91673173e-03 -7.55579676e-03 -1.25915464e-02
      -1.14143388e-02 -2.42105580e-05 2.73827631e-02 1.14147374e-02
      4.24355408e-03 4.90281219e-03 8.45187437e-03 4.02133446e-03
      6.35534059e-03 4.97183483e-03 -1.48638114e-02 -7.34815048e-03
      -6.27207151e-03 -6.79889275e-03 1.66054964e-02 6.06161263e-03
      -7.89004378e-04 -3.09916143e-03 -2.26909155e-03 -2.05620211e-02
      3.89765785e-03 3.71051603e-03 -1.74847164e-03 -1.01644332e-02
      -6.67270785e-03 1.29737547e-02 2.71841511e-02 9.91933607e-03
      8.40809487e-04 1.05096754e-02 8.04193784e-03 -1.77484527e-02
      1.04247862e-04 8.41255358e-04 -1.63335670e-02 -5.99537790e-03
      -1.10908905e-02 2.79799569e-03 2.13854052e-02 1.13820396e-02
      4.65557119e-03 -3.45905358e-03 -1.03678564e-02 3.58850486e-03
      5.54016000e-03 -1.30491599e-03 -2.41718255e-02 -8.28573387e-03
      6.97762240e-03 9.07460321e-03 1.67098474e-02 2.45690905e-02
      2.71383002e-02 -5.16375434e-03 -1.59870666e-02 -1.24641201e-02
      1.43057676e-02 4.98328265e-03 -1.90131720e-02 2.55402550e-03
      3.18869459e-03 1.44014414e-02 2.05302518e-02 7.76351662e-03
      8.97565915e-04 3.28584202e-03 6.93733164e-05 -4.49393271e-03
      -3.54663655e-03 7.70268671e-04 -1.66705344e-02 -1.07452376e-02
      -7.25246128e-03 -1.21438298e-02 1.52448332e-02 1.16593298e-02
      9.99457669e-03 1.67085789e-02 1.94109976e-02 -2.87092361e-03
      1.42320180e-02 -1.54246518e-03 -1.50102563e-02 -6.51124399e-03
      5.21492492e-03 5.08452626e-03 8.82913917e-03 6.02567615e-03
      1.18865957e-02 -7.01910676e-03 -1.28113460e-02 -6.82058744e-03
      6.71301922e-03 6.49153115e-03 -1.46177830e-02 -1.08433899e-03
      1.07156653e-02 7.30348704e-03 1.06950914e-02 1.37482844e-02
      5.43567352e-03 3.53643816e-04 1.96021330e-02 1.72272101e-02
      2.73055048e-03 4.54151741e-04 -1.77265834e-02 -6.92309812e-03
      -1.88138653e-02 -1.97673570e-02 -4.56728786e-03 9.70056001e-03
      9.03116632e-03 6.06076792e-03 -1.95242453e-03 -2.87355715e-03
      8.53808597e-03 3.21747875e-03 -1.26694152e-02 -1.69361979e-02
      -7.23807607e-04 -9.91471228e-04 3.41029256e-03 1.20407771e-02
      1.14189333e-03 1.50219966e-02 2.13109422e-02 9.81098227e-03
      4.89725498e-04 -1.48572251e-02 -1.49100879e-02 -7.02631660e-03
      -3.87526094e-03 -1.53455259e-02 2.75413599e-03 1.25096664e-02
      9.10660159e-03 5.47920773e-03 1.46972639e-02 1.19846622e-02
      1.75135769e-03 -6.33417396e-03 -1.74435023e-02 -1.10799605e-02
      6.47343043e-03 -1.64967943e-02 1.74618780e-03 1.71312001e-02
      -7.65521498e-03 -2.29966547e-02 -9.63064842e-03 2.84112641e-03
      6.44050725e-03 3.98232928e-03 -4.19098791e-03 7.02799298e-03
      -5.12722740e-03 -2.11922452e-02 -7.13674072e-03 1.86526566e-03
      -6.40115142e-03 9.06027760e-03 1.37308091e-02 9.88655910e-03
      -4.58770385e-03 -1.29446713e-02 -4.89355205e-03 -2.05028597e-02
      -4.46678558e-03 -1.79816186e-02 -5.36057493e-03 1.15727363e-02
      -1.06854830e-02 -4.33338387e-03 -3.42211570e-04 4.94418154e-03
      8.32017139e-03 8.85409024e-03 1.55753354e-04 -3.94815626e-03
      -4.29503899e-03 -3.31554958e-03 8.60411674e-03 1.55454315e-02
      -1.01141352e-02 -1.90145541e-02 -7.30089517e-03 2.15660762e-02
      2.01788712e-02 5.92985330e-03 -5.75931882e-03 -1.29296612e-02
      -2.07213126e-03 -2.15182267e-03 -4.45652495e-06 3.83157545e-04
      -9.61937197e-03 -2.57283170e-02 -4.96090297e-03 2.61817295e-02
      3.00195012e-02 2.06305571e-02 -1.94349186e-03 -1.71883292e-02
      -2.39175721e-03 -5.24701201e-04 8.47223587e-03 1.24804806e-02
      -7.23305997e-03 -1.68386530e-02 -7.11474335e-03 2.19423547e-02
      1.75589137e-02 1.26265548e-02 -1.09953610e-02 -7.47078424e-03
      4.63655684e-03 7.83731136e-03 1.34265581e-02 3.84800462e-03
      -1.70509201e-02 -1.61666870e-02 7.23517314e-03 1.66086126e-02
      1.93944052e-02 1.38270920e-02 -1.54164191e-02 -1.68446600e-02
      -5.05348155e-03 -2.04542838e-02 -3.01186042e-03 8.09786376e-03
      -2.94491742e-03 -3.77302174e-03 2.29470176e-03 1.67737585e-02
      1.67119484e-02 1.34518463e-02 2.09726114e-03 -1.34731969e-02
      -1.22424224e-02 -2.43369602e-02 1.30435135e-02 1.81622002e-02
      3.71599896e-03 -7.91531894e-03 -1.59067512e-02 -1.17559521e-03
      1.01147220e-02 8.80046003e-03 2.39519915e-03 -6.25383668e-03
      -7.13508576e-03 1.17379031e-03 -1.01335382e-03 2.50967289e-03
      -1.09411767e-02 3.87073192e-03 2.25591231e-02 1.28321294e-02
      1.16575360e-02 4.15349565e-03 -1.10987732e-02 -1.78398807e-02
      -1.28716584e-02 1.63060473e-03 3.74701433e-03 1.55100329e-02
      -4.90936171e-03 -3.52105056e-03 2.61370768e-03 -4.49839188e-03
      5.98398084e-03 6.44392706e-03 6.05466124e-03 -3.31876986e-03
      -7.60161737e-03 -1.52995875e-02 1.88276805e-02 2.07790192e-02
      1.64098747e-03 -1.11939497e-02 -7.50736101e-03 -6.05940912e-03
      8.18220433e-03 1.17540837e-03 5.67775685e-03 -1.18639949e-03
      -1.24328388e-02 -1.19984904e-02 2.40162220e-02 2.82062870e-02
      1.08603733e-02 1.16981706e-02 2.99051171e-03 -9.66211315e-03
      1.27763359e-03 -3.48018541e-04 -5.97828534e-04 -6.48361864e-04
      -9.93507821e-03 -6.37610862e-03 9.78948362e-03 1.55488960e-02
      1.04307104e-03 1.16439990e-03 8.58115032e-03 -4.38467367e-04
      9.57406871e-03 1.45429727e-02 1.42043354e-02 5.04641421e-03
      -8.85185786e-03 -1.54368198e-02 2.63286587e-02 3.24911587e-02
      6.56482857e-03 1.01571092e-02 1.43295862e-02 1.38320588e-03
      1.22097880e-02 5.97283151e-03 1.36393195e-04 7.46692671e-03
      -2.48211250e-02 -7.04078563e-03 1.41226482e-02 1.50558306e-02
      1.79192368e-02 1.60099361e-02 -4.50899918e-03 -6.73264172e-03
      1.40074512e-03 -6.45538652e-03 -1.82682127e-02 -1.80903710e-02
      -1.51519924e-02 -9.60496441e-03 1.58277936e-02 1.63324941e-02
      1.04829120e-02 7.99710583e-03 1.48130557e-03 8.38072877e-03
      4.68056370e-03 4.37244261e-03 -1.29824933e-02 -5.02756285e-03
      -9.20021441e-03 -5.49605768e-03 2.65321843e-02 3.32432948e-02
      1.43778808e-02 3.41685954e-03 -1.03813352e-03 -9.63314157e-03
      2.56119086e-03 -3.84840602e-03 -1.60321612e-02 -4.83409269e-03
      -4.04527644e-03 -1.69627776e-03 2.51766052e-02 3.63047682e-02
      8.94105993e-03 1.59727584e-03 -1.23997992e-02 -1.04220922e-03
      6.78921910e-03 -2.93051964e-03 -1.74487215e-02 1.91815733e-03
      -1.97762046e-02 -2.45212787e-03 1.35180084e-02 8.11466202e-03
      -2.75153015e-03 3.13428440e-03 -2.98103318e-03 1.47498737e-03
      7.42635550e-03 5.39332442e-03 -5.70627628e-03 -1.07525615e-02
      4.25606995e-04 -5.21389022e-03 1.42943049e-02 1.63806994e-02
      -4.52656718e-03 -3.08233808e-04 -4.16244194e-03 -5.98144345e-03
      1.84089027e-03 -8.18118826e-03 -9.79265943e-03 -3.27377958e-04
      -1.00772614e-02 -1.36104901e-03 1.97054520e-02 1.64471641e-02
      -1.75787159e-03 -9.08426009e-03 -4.27110167e-03 -2.16508051e-03
      1.15854051e-02 6.19342737e-03 -3.31457984e-03 -2.89675314e-03
      -7.81775452e-03 -5.02880523e-03 2.50571985e-02 1.21562751e-02
      -2.16702581e-03 -6.06004382e-03 -2.74133403e-03 -8.94436054e-03
      -1.53479888e-03 3.21991555e-03 -1.01304054e-03 8.39825254e-03
      -1.02789765e-02 -1.94970407e-02 1.06114941e-03 8.58267210e-03
      -2.35539908e-03 4.49765055e-03 -4.61665355e-03 -9.19901300e-03
      8.10335670e-03 2.22412939e-03 -6.72186632e-03 2.00232887e-03
      5.68815880e-03 -1.86805520e-02 -6.50483835e-03 8.07675533e-04
      -2.59326934e-03 4.00794949e-03 -1.94087159e-02 -1.20327165e-02
      1.78093258e-02 1.67461243e-02 1.23921584e-03 1.61803681e-02
      -6.88657537e-03 -1.83302760e-02 7.65975891e-03 6.94874814e-03
      -2.24961690e-03 -1.86405645e-03 -1.18451836e-02 -1.70376897e-02
      -4.43263300e-04 5.92789380e-03 3.91182909e-03 1.40077006e-02
      1.23916417e-02 -2.78648455e-02 -4.89475718e-03 -2.73103453e-03
      4.46334155e-03 -4.06652875e-03 -2.63584927e-02 -3.07788104e-02
      -2.90592900e-04 1.89405837e-04 -4.54246532e-03 1.42967692e-02
      1.20398160e-02 -4.20512771e-03 4.02441109e-03 9.18311160e-03
      6.86962483e-03 1.48595329e-02 -1.32632917e-02 -1.13829784e-03
      1.16792405e-02 5.45726763e-03 1.43706682e-03 1.36916386e-02
      4.47459891e-03 -1.02632884e-02 1.10130813e-02 2.43758224e-02
      -2.18563294e-03 -1.02382516e-02 -2.40530856e-02 -4.25681658e-03
      1.60851621e-03 -4.36796428e-04 -1.08238831e-02 1.03446357e-02
      2.25412287e-02 6.10518211e-04 7.47194141e-03 1.25326002e-02
      1.27680013e-02 1.07800392e-02 -1.31013407e-03 -6.22950029e-03
      -4.82258591e-04 -5.66739589e-03 -1.46234240e-02 8.71386938e-03
      -1.08672155e-03 -3.48530686e-03 8.22206307e-03 1.99860167e-02
      2.53339042e-03 5.79900900e-03 -8.17813631e-03 -4.40640654e-03
      -6.75640581e-03 -3.40071716e-03 -1.79523602e-02 5.64184366e-03
      1.48998923e-03 -9.48451366e-03 1.09602502e-02 1.44356238e-02
      1.60646939e-03 -1.93286891e-04 -9.66532249e-03 3.20494245e-03
      2.45197839e-03 5.55063225e-03 -4.70262626e-03 4.59706085e-03
      -7.79145723e-03 -1.03164539e-02 8.09953269e-03 5.96584287e-03
      -8.47338513e-03 1.26973521e-02 1.05384327e-02 -1.36115227e-03
      1.51537275e-02 5.88226598e-03 -6.64977403e-03 -1.07905939e-02
      -3.68917012e-03 -1.03940265e-02 4.03989851e-03 7.26875057e-03
      -5.57664270e-03 -3.77555494e-03 1.73196988e-03 2.91048246e-03
      -1.47386431e-03 1.11423656e-02 -4.62508807e-03 -5.41332271e-03
      -5.44676837e-03 -2.73467903e-03 1.62830316e-02 4.26077330e-03
      -1.01696989e-02 2.12215981e-03 1.29087763e-02 -2.88294093e-03
      1.42874690e-02 7.39997439e-03 -4.17486997e-03 -1.07027534e-02
      -3.41052073e-03 3.72590846e-03 1.07073672e-02 4.71606106e-03
      -5.07101836e-03 6.72212988e-03 3.54930270e-03 -2.79930071e-03
      9.89658106e-03 2.75749504e-03 6.27394998e-03 -1.33182853e-02
      -2.27479506e-02 -9.27002449e-03 9.67583153e-03 1.70453042e-02
      -1.25280174e-03 9.80537292e-03 -5.29294740e-03 -1.02765523e-02
      1.02482885e-02 4.49609906e-05 -1.29474094e-04 -1.05731366e-02
      2.80715851e-03 9.40628629e-03 1.98332053e-02 1.14610167e-02
      -1.41406078e-02 7.19644129e-04 5.57791255e-03 -1.57467648e-02
      1.03038037e-02 9.49023012e-03 3.09246592e-03 1.25519757e-03
      -3.71568371e-03 -7.28302542e-03 6.44703768e-03 7.06224423e-03
      -9.22850519e-03 8.76435079e-03 -6.14103535e-03 -2.02407688e-02
      1.31736062e-02 1.48949539e-02 3.29155847e-03 1.69426051e-03
      -1.30129484e-02 -1.71231981e-02 3.06214066e-03 1.06430827e-02
      7.05507444e-03 -5.84688503e-04 -9.56600346e-03 -8.96900147e-03
      7.04353908e-03 -3.95449577e-03 -2.17708759e-02 -9.27267224e-03
      -1.93688907e-02 -2.19850782e-02 2.40899762e-03 1.19719803e-02
      -2.20895256e-03 1.01835821e-02 9.36254486e-03 -1.13837502e-03
      2.06033047e-02 9.97971743e-03 -1.55541562e-02 -2.51330957e-02
      2.02893093e-03 -1.07373875e-02 -2.53419741e-03 2.50389846e-03
      -9.05397441e-03 -7.11804023e-03 -1.56648941e-02 -1.07911751e-02
      1.37517015e-02 6.33025542e-03 -1.04332846e-02 -1.46267153e-02
      -2.51944810e-02 -2.45602941e-03 7.56825460e-03 -7.42756529e-03
      -6.48264540e-03 -2.88324617e-03 9.69027076e-03 7.61527428e-03
      2.83623450e-02 9.05125402e-03 -2.02461183e-02 -3.32183316e-02
      -6.77505555e-03 -1.98550411e-02 6.58095768e-03 1.74351949e-02
      2.44824728e-03 7.56921107e-03 -7.16334768e-03 -1.79249719e-02
      -2.63644531e-02 -3.44285672e-03 3.45001742e-03 2.46832287e-03
      1.06840320e-02 -1.86570752e-02 -5.39431022e-03 6.32128213e-04
      -3.34316418e-02 -2.12612879e-02 -1.65636484e-02 -1.57711767e-02
      -9.09196120e-03 6.53170748e-03 4.42299526e-03 2.11728774e-02
      1.88927297e-02 -1.58951003e-02 -6.72196475e-05 1.53883814e-03
      -2.31754184e-02 -1.34227034e-02 -9.28066764e-03 -1.65558755e-02
      -2.15675402e-02 -2.30576470e-03 7.51921162e-03 3.22525539e-02
      2.35312041e-02 -5.09887515e-03 7.70515471e-04 -5.36694657e-03
      -3.40810120e-02 -1.92444660e-02 -3.91811191e-04 -3.05908197e-03
      -7.75491260e-03 -4.96813329e-03 -5.76866651e-03 3.88258733e-02
      -2.40192399e-03 -7.18089798e-03 8.53451528e-03 7.88098853e-03
      -2.00688448e-02 -1.31387534e-02 -1.57518815e-02 -1.06568448e-02
      -6.08728360e-03 -2.82179820e-03 -6.46702060e-03 2.95436522e-03
      4.32578428e-03 1.22592263e-02 1.45415794e-02 5.74253500e-03
      -2.00994126e-02 -2.50111800e-03 -3.03326105e-03 -1.25492448e-02
      -1.13000441e-02 -1.07875904e-02 -7.23929703e-03 3.56226577e-03
      1.98411904e-02 3.53028695e-03 8.13683122e-03 -8.16753527e-06
      -2.95526516e-02 -1.57868844e-02 1.00770844e-02 -4.79189726e-03
      -8.52641556e-03 -1.70886889e-02 -1.35789374e-02 1.69392321e-02
      2.59374809e-02 1.76172815e-02 2.28314362e-02 9.71617829e-03
      -2.61051003e-02 -2.22525038e-02 4.63591795e-03 6.33594114e-04
      -2.70302966e-02 -1.87171567e-02 -1.36690782e-02 1.50389140e-02
      -5.51386154e-04 3.42485635e-03 5.94511116e-03 -5.76788606e-03
      -6.59866678e-03 -5.45216491e-03 -3.90126626e-03 8.89490172e-03
      -9.36611835e-03 -4.20449581e-03 -1.19600091e-02 -1.00103738e-02
      -1.78175550e-02 -2.02432219e-02 -4.90716333e-03 -1.50634651e-03
      -1.03038996e-02 -2.79613351e-03 1.75387152e-02 7.87125621e-03
      7.07199005e-03 -5.97603992e-03 -1.34585239e-02 -2.89309630e-03
      2.10332349e-02 6.58188621e-03 9.90583654e-03 5.61560504e-03
      -1.28243966e-02 -1.86300278e-02 1.01051666e-02 1.26801245e-02
      -9.07102227e-03 -8.62611923e-03 -1.40036093e-02 1.78117771e-02
      1.83857011e-03 -1.35276550e-02 -2.69755721e-03 1.04329716e-02
      4.67611710e-03 -1.76329468e-03 1.52182970e-02 6.48133457e-04
      8.24236218e-03 3.98083963e-03 -1.28491009e-02 8.76152143e-03
      -2.14532278e-02 -1.18351951e-02 -1.27068756e-03 7.76386075e-03
      -5.84910682e-04 -1.17270015e-02 4.36015567e-03 -6.13084820e-04
      1.16460463e-02 -2.06607720e-03 -1.21973800e-02 -1.50731895e-02
      -7.02883862e-03 -1.50805758e-02 -2.90707638e-03 1.72341764e-02
      8.25592410e-03 5.30039845e-03 1.42373582e-02 8.13161861e-03
      2.97570275e-03 -7.64431059e-03 -8.78418237e-03 -1.33010158e-02
      5.42692374e-04 -2.31398549e-02 -1.88285150e-02 6.45316532e-03
      7.63383752e-04 -7.11140921e-03 7.98153132e-03 -3.18563986e-03
      1.72205474e-02 3.67181329e-03 7.82884099e-03 1.71468016e-02
      6.69286586e-03 -2.66379379e-02 -1.76201668e-02 1.17545370e-02
      5.14443172e-03 -1.06137330e-02 3.82191082e-03 -1.53713569e-04
      1.22594675e-02 2.92680296e-03 5.86986542e-04 1.42228091e-02
      -1.13536157e-02 -1.65694896e-02 -4.29112837e-03 -9.76665760e-04
      -2.44650780e-03 1.64634883e-02 7.43018603e-03 6.37387624e-03
      2.93613062e-04 -1.03907008e-03 5.31561673e-04 -1.40540889e-02
      -8.59187543e-03 -9.08506196e-03 -2.41653016e-03 -2.35099043e-03
      -5.20664919e-03 -1.10006414e-03 4.63811960e-03 1.02862967e-02
      1.22709572e-02 9.65765305e-03 -1.80108007e-03 -1.07801249e-02
      -1.95423327e-03 -2.25779973e-02 -1.17786061e-02 4.24611475e-03
      1.30683091e-03 -7.65027711e-03 1.14316517e-03 2.29180488e-03
      -2.64281686e-03 -3.74882342e-03 -1.01005221e-02 -5.07448521e-03
      -1.54921981e-02 -2.25151833e-02 8.63679405e-03 1.19954487e-02
      1.07354339e-04 4.26909048e-03 1.56603586e-02 -2.21552583e-03
      -4.52610059e-03 -5.83491381e-03 -3.20292562e-02 -1.60634220e-02
      -5.08755259e-03 -9.32037074e-04 1.13186501e-02 7.69220246e-03
      -8.98160879e-03 -8.32119770e-03 1.33547117e-03 1.70205478e-02
      1.95420962e-02 1.23725189e-02 -1.32011948e-02 -1.50751583e-02
      -3.98106733e-03 -8.50828644e-03 1.09972870e-02 5.66782802e-03
      -2.49425434e-02 -1.07745007e-02 1.11747691e-02 1.43167591e-02
      1.76513772e-02 8.14217981e-03 -1.01797031e-02 -1.69456601e-02
      -8.39928165e-03 -1.01112472e-02 1.45783611e-02 1.17417360e-02
      -3.74087295e-03 -1.29489368e-03 1.84473805e-02 9.77534521e-03
      -1.67241073e-04 -4.69170464e-03 -3.98000106e-02 -1.63715370e-02
      -1.19302347e-02 -1.29240574e-02 9.49271116e-03 6.76632859e-03
      -1.84965692e-02 -5.09990659e-03 2.40018442e-02 6.25975896e-03
      4.94621601e-03 -1.72981876e-03 -3.14325765e-02 -1.92534067e-02
      -5.18565485e-03 -6.27995981e-03 2.12668325e-03 5.50761912e-03
      -1.33667504e-02 -4.41471674e-03 1.15428669e-02 9.49838944e-03
      4.35126666e-03 -1.09703373e-03 -1.73236113e-02 -2.49346271e-02
      -8.87349434e-03 -4.13759472e-03 5.58275590e-03 2.10631154e-02
      -2.64410791e-03 -1.05736284e-02 1.06927799e-02 4.77078650e-03
      -3.78332287e-03 -1.46899018e-02 -1.21236658e-02 -5.01541607e-03
      -3.09568993e-03 -2.21206918e-02 -5.10938885e-03 1.91443739e-03
      -9.14938748e-03 -1.58330787e-03 2.47850865e-02 5.37507748e-03
      -1.80574498e-04 -8.95097293e-03 -2.85196491e-02 -1.40151549e-02
      -9.83440783e-04 -1.04958843e-02 5.36498940e-03 1.36524718e-02
      -2.91642291e-03 -1.62394845e-03 2.17643892e-03 6.58638449e-03
      -5.07335458e-03 -2.80850045e-02 -2.30435170e-02 2.06082524e-03
      -1.09405061e-02 -1.33048799e-02 1.24838814e-04 3.60196782e-03
      -1.60140488e-02 -1.87929403e-02 7.70227890e-03 4.41018539e-03
      1.07230209e-02 4.51339409e-03 -3.51760653e-04 -5.13362931e-04
      -1.37797883e-02 -2.30633765e-02 1.05097173e-02 1.76055972e-02
      -8.37497506e-03 -1.48547078e-02 -3.30175902e-03 -2.66265590e-03
      1.73593033e-02 1.67463943e-02 -6.65199105e-03 1.52038282e-03
      8.20230693e-04 -1.77655928e-02 1.05195893e-02 1.45477233e-02
      -1.68283768e-02 -1.07700052e-02 1.38575793e-03 8.70554522e-03
      8.59114993e-03 -3.70477606e-03 -5.41376090e-03 6.86286204e-03
      5.99607965e-03 -1.39357569e-02 1.18326405e-02 2.16024052e-02
      -2.10391488e-02 -1.62906293e-02 -8.61382141e-05 -5.24702482e-05
      1.80453714e-02 1.30109303e-02 7.07295071e-03 1.15998462e-02
      -1.29482327e-02 -8.60955101e-03 1.95343569e-02 2.52172314e-02
      5.20832837e-03 -9.33223218e-03 -1.17774243e-02 -5.89558901e-03
      6.49093417e-03 8.18088930e-03 -8.28165468e-03 -4.39553754e-03
      -1.04812961e-02 -1.05720004e-02 1.30097093e-02 2.39209160e-02
      5.69053181e-03 -4.51789703e-03 -1.50758857e-02 4.81854659e-03
      2.29500197e-02 3.90135846e-03 -2.25680545e-02 -9.76738427e-03
      -6.02227030e-03 -7.60202622e-03 8.83738138e-03 2.33703870e-02
      9.42098256e-03 -1.31811118e-02 -1.84711423e-02 -3.57378949e-03
      1.40707428e-02 1.17929084e-02 2.42755981e-03 1.34562925e-02
      -3.79430293e-03 -1.34270489e-02 2.16851197e-03 3.61174229e-03
      2.15483177e-03 -2.39822380e-02 -1.99821033e-02 3.18497681e-04
      3.12118754e-02 1.30422320e-02 -2.06120219e-02 2.56588822e-03
      -1.03067877e-02 -1.15860486e-02 1.17066931e-02 1.47566283e-02
      1.08554401e-03 -1.79688334e-02 -1.14509212e-02 1.09741623e-02
      1.95678920e-02 8.04736558e-03 -9.55494121e-03 -7.04701710e-03
      -7.27543794e-03 -5.07944170e-03 1.81405451e-02 1.16261775e-02
      4.18105721e-03 -2.18346231e-02 -4.56020329e-03 7.99551792e-03
      3.93365603e-03 4.41972073e-03 1.01616629e-03 8.73194914e-03
      -4.34932625e-03 -2.55549420e-02 2.47258530e-03 -4.54506790e-03
      -7.34797819e-03 -3.59306112e-02 -4.37295949e-03 1.84306595e-02
      2.81710345e-02 1.26465987e-02 -1.28851375e-02 4.48082853e-03
      -5.83446724e-03 -1.98927652e-02 1.72976647e-02 1.17283845e-02
      -7.10147293e-03 -3.11754346e-02 -3.33973160e-03 1.03175407e-03
      4.67784936e-03 2.19133031e-03 -1.47813400e-02 -8.24321900e-03
      -5.03569003e-03 -9.79510974e-03 9.86842811e-03 1.39125837e-02
      5.70878095e-04 -1.30814463e-02 -8.43690988e-03 -8.82171467e-03
      -2.45230715e-03 4.76317888e-04 8.88438197e-04 6.03086501e-03
      1.33260693e-02 -1.87832974e-02 5.33250207e-03 1.46603007e-02
      4.06860048e-03 -1.65615957e-02 -1.56230256e-02 -2.04953309e-02
      -8.92496482e-03 -2.08623218e-03 -1.20410835e-02 5.39520429e-03
      -5.16282814e-03 -2.10153386e-02 7.95775559e-03 1.19546782e-02
      4.58084000e-03 -1.19860796e-02 -2.25458085e-03 -6.37251651e-03
      -6.46947324e-03 -1.23493755e-02 -2.41091512e-02 -6.85138116e-03
      -1.30452458e-02 -3.08057871e-02 5.26888878e-04 1.13754664e-02
      -6.59776479e-03 -1.18779959e-02 8.46728217e-03 2.04959861e-03
      -1.70133505e-02 -1.35752941e-02 -2.72212811e-02 -4.39314451e-03
      1.86281446e-02 4.37793089e-03 8.98731593e-03 1.72604639e-02
      1.00306552e-02 -2.38076638e-04 7.94535130e-03 6.46293769e-03
      -1.92716497e-03 5.47393225e-03 -1.64186731e-02 -3.51073546e-03
      -6.62915735e-03 -2.18093162e-03 6.32856181e-03 1.05134491e-02
      -1.44908752e-03 -4.91420971e-03 -2.51919217e-03 1.94218871e-03
      -1.03795445e-02 -2.12959060e-03 -1.60989352e-02 -4.96527180e-03
      2.14828015e-03 -8.07095785e-03 1.40344705e-02 1.92724690e-02
      -5.69437537e-03 -1.01266028e-02 3.73289501e-03 1.56324189e-02
      6.18347479e-03 9.94949136e-04 -1.54843973e-02 -2.23220210e-03
      4.23167879e-03 -3.42377857e-03 1.08078113e-02 1.86907910e-02
      -1.63932070e-02 -2.20000353e-02 -1.00711444e-02 -4.17274889e-03
      -1.40118413e-03 -1.01188850e-02 -1.97547898e-02 1.92134909e-03
      -6.33446639e-03 -5.94135933e-03 1.92729000e-03 -4.75462119e-04
      -1.31643517e-02 -5.35070617e-03 -1.41346745e-05 3.87235568e-03
      2.32878979e-03 -6.69913366e-04 -8.82316567e-03 -9.33702197e-03
      2.30147573e-03 4.92038159e-03 1.11091780e-02 -4.98906709e-04
      5.03170397e-03 -7.74821686e-03 5.11263171e-03 -1.00988317e-02
      7.44561385e-03 5.70862601e-03 -2.14565452e-02 -8.18752684e-03
      1.16112754e-02 -1.19810421e-02 3.66011076e-03 4.02700109e-03
      -8.72476026e-03 -5.02314325e-03 -4.89589665e-03 3.04825953e-03
      3.29684024e-03 -1.59737989e-02 -1.93226822e-02 6.80249324e-03
      7.70727498e-03 2.69781193e-03 8.83634947e-03 8.18828680e-03
      4.06139903e-03 -1.64348900e-03 3.49856634e-03 -6.09176932e-03
      7.89930951e-03 -7.72302551e-03 -2.85746995e-02 -9.07041412e-03
      1.19593237e-02 7.35384040e-03 1.54231908e-02 6.81794016e-03
      -2.73092557e-03 -6.65784162e-03 -2.70251912e-04 -1.36556709e-02
      2.90595274e-03 5.69396093e-03 -3.79055506e-03 -4.69774287e-03
      1.63629074e-02 3.67375265e-04 8.12838972e-03 6.73459470e-03
      -8.63481220e-03 -1.12000294e-02 -2.44036820e-02 -2.49379016e-02
      -2.23161507e-04 -4.91388515e-03 -1.09539414e-02 5.58856735e-03
      1.39877135e-02 1.31076258e-02 1.79820154e-02 1.40747074e-02
      1.40029093e-04 -1.05239721e-02 -1.12262033e-02 -1.32603543e-02
      1.14403972e-02 -2.91472446e-04 -1.24750258e-02 -1.27531253e-02
      9.26615950e-03 -4.57515242e-03 8.90646130e-03 5.51966252e-03
      -7.77765876e-03 -1.26571395e-02 -1.88388769e-02 -1.93391480e-02
      1.69064989e-03 -5.45622502e-03 -1.29046105e-02 -4.19926131e-03
      2.25421693e-02 -3.98789439e-03 -2.56355572e-03 2.26610084e-03
      -6.46570092e-03 -1.22402087e-02 -2.17304323e-02 -1.23391571e-02
      1.17384049e-03 -8.28069542e-03 -2.05287170e-02 3.88945895e-03
      -7.87884183e-03 -2.84326030e-03 6.73036417e-03 -2.23845639e-03
      -4.49291896e-03 -8.25528149e-03 -5.47475228e-03 5.50474739e-03
      1.74164325e-02 1.35907566e-03 -2.14189477e-02 -2.20103618e-02
      1.22087421e-02 -8.13252013e-03 -3.17259663e-04 -5.38196124e-04
      -8.26937333e-03 -1.48325190e-02 -3.34844040e-03 -9.94888507e-03
      -1.14224281e-03 -1.12740444e-02 -2.80185398e-02 -3.91542818e-03
      -2.95396596e-02 -1.85645502e-02 4.23245598e-03 1.08769219e-02
      6.27439329e-03 -3.87001957e-04 -9.06475820e-03 9.90014896e-03
      1.15309134e-02 -3.73622822e-03 -2.70334315e-02 -4.77592647e-02
      2.92628612e-02 -5.56340208e-03 2.29645218e-03 1.52412872e-03
      -2.85030082e-02 -2.39892974e-02 -6.84084464e-03 -7.91323744e-03
      -7.26650143e-03 6.43168634e-04 1.41068101e-02 3.05158198e-02
      3.41052935e-02 -8.53616730e-05 6.30672555e-03 6.68885326e-03
      -2.51914021e-02 -1.38731375e-02 2.55141361e-03 1.78376155e-03
      -5.36369951e-03 -4.71864874e-03 3.28363781e-03 3.78006399e-02
      2.78818328e-02 1.35253184e-03 1.01534557e-02 2.14708125e-04
      -3.66727300e-02 -1.77169032e-02 -6.99507771e-03 -2.29386296e-02
      -6.65658992e-03 3.77825345e-03 1.10797919e-02 2.81185713e-02
      1.91550404e-02 4.92179254e-03 5.34969382e-03 1.98756601e-03
      -2.15319339e-02 -1.01900371e-02 -2.26426846e-03 -7.49027217e-03
      -1.34662003e-03 -5.53081697e-03 2.38887407e-03 2.33556759e-02
      1.42604765e-02 4.60832991e-04 5.41253155e-03 4.95711528e-03
      -1.20834867e-02 -2.47152653e-02 -9.42861568e-03 -1.88365905e-03
      -7.30052358e-03 -1.53620904e-02 -6.83988724e-03 1.87520310e-02
      2.39736047e-02 1.40710482e-02 2.14772075e-02 8.53754021e-03
      -1.84106007e-02 -1.98309775e-02 -1.04192318e-03 1.03279464e-02
      -1.27302697e-02 -1.62366088e-02 -8.21850356e-03 1.75863933e-02
      8.72010831e-03 9.96237271e-04 7.59726809e-03 4.61189169e-03
      -1.09866932e-02 -1.81574561e-02 -1.02728587e-02 -1.95639464e-03
      -4.27268213e-03 -1.48877697e-02 -1.39004374e-02 4.27127350e-03
      1.34481527e-02 -7.04865903e-04 1.97891910e-02 -6.88888878e-03
      -1.75417624e-02 -9.09546483e-03 9.41617321e-03 7.38313713e-04
      3.55071202e-03 -1.08366897e-02 -1.44683616e-02 1.71442213e-03
      1.96725875e-02 2.13972293e-03 9.49636195e-03 7.58803263e-03
      -6.56361226e-03 -2.43947618e-02 2.36504897e-03 1.09862238e-02
      -8.20492767e-03 -9.64146946e-03 -5.19859325e-03 1.88638382e-02
      -1.87389890e-03 -1.64188575e-02 -7.13614654e-03 1.67592112e-02
      6.06731419e-03 -1.36439810e-02 3.28297750e-03 5.28552756e-03
      8.26183520e-03 8.61186069e-03 5.48008457e-03 8.96668807e-03
      1.10290991e-02 5.04753087e-03 5.80437435e-03 -7.51928834e-04
      -2.24766377e-02 -2.13424154e-02 2.79270578e-03 -2.46900599e-03
      3.18563404e-03 -4.13924269e-03 -7.07279518e-03 1.24927657e-02
      1.91485637e-03 -3.39358253e-03 -1.29975062e-02 3.48650175e-03
      -3.34275365e-02 -2.26343535e-02 -1.76505055e-02 -3.23719275e-03
      1.30527234e-02 1.16740400e-02 4.30647377e-03 6.21077511e-03
      1.39075713e-02 -1.39203854e-02 -1.01282783e-02 1.09442510e-02
      6.33578096e-03 -8.60308483e-03 -6.71531714e-04 -1.10952910e-02
      1.50146633e-02 1.93410031e-02 1.75827909e-02 1.48455873e-02
      2.80406605e-02 -1.27872126e-02 -1.08689433e-02 1.00501068e-02
      2.34663347e-03 -2.08072700e-02 2.87802308e-03 -2.63871462e-03
      2.29371767e-02 2.01472025e-02 3.72306723e-03 2.11737640e-02
      1.26195541e-02 -8.84743687e-03 -1.90298129e-02 2.94657331e-03
      -1.26571395e-02 -7.89371226e-03 -5.95278805e-03 -1.74273644e-02
      1.36034767e-04 1.28792012e-02 1.48561951e-02 6.08775066e-03
      9.12398566e-03 -9.40749422e-03 -5.56745939e-03 -8.94163456e-03
      -2.47919317e-02 -2.51886491e-02 -2.58079264e-03 -1.28948665e-03
      2.41896901e-02 2.04273462e-02 1.54560304e-03 4.10271634e-04
      1.72674023e-02 3.66882770e-04 2.55567743e-03 1.56782418e-02
      5.44325914e-03 -6.23549009e-03 -1.38674595e-03 1.42277882e-03
      3.61141912e-03 1.31687187e-02 -4.16197767e-03 3.83872213e-03
      -3.10497475e-03 1.17149335e-04 1.17758131e-02 2.53955796e-02
      3.64701031e-03 3.23214149e-03 9.44911037e-03 -6.11259788e-03
      -6.96366013e-04 7.21936626e-03 -9.63110477e-03 3.12473322e-03
      -1.60927027e-02 -1.09953908e-02 6.87756436e-03 -6.15623360e-03
      -2.30850168e-02 -1.42408377e-02 3.66892782e-03 9.06632002e-03
      1.49385314e-02 1.40984934e-02 -1.79174822e-02 -1.18354531e-02
      -1.06889931e-02 -7.70810852e-03 2.46731704e-03 9.94501356e-03
      -1.38544999e-02 6.62721274e-03 1.65494420e-02 6.29810907e-04
      2.72625498e-03 -9.81033687e-03 -1.35066025e-02 -2.15946715e-02
      1.04513317e-02 8.46869871e-03 1.32499179e-02 1.69236343e-02
      7.72249792e-03 -1.14942086e-03 3.28460732e-03 -1.96981477e-04
      5.78249979e-04 6.54395437e-03 -1.09280301e-02 4.93444875e-03
      1.83396004e-02 1.07992273e-02 2.17363909e-02 6.46142429e-03
      6.25755033e-03 -1.59317441e-03 1.49344150e-02 9.58395889e-04
      5.80713432e-03 8.01788270e-03 -7.92830810e-03 4.79421997e-03
      2.59611606e-05 4.78557358e-03 2.05998290e-02 9.41202883e-03
      4.64562094e-03 5.97317843e-03 -3.11404001e-03 -1.71990953e-02
      -1.20358486e-02 -2.04512998e-02 -1.46877607e-02 -1.46278050e-02
      1.21951448e-02 4.92408173e-03 2.18351427e-02 4.57314635e-03
      -5.60589833e-04 -1.02578779e-03 -1.23234829e-02 -1.09832129e-02
      -3.81710753e-03 -9.85289086e-03 -1.24927191e-02 -9.79985110e-04
      1.52902724e-02 9.34286800e-05 1.09091047e-02 1.72355201e-03
      -5.96395228e-03 -3.84201505e-03 3.79051734e-03 -2.45150761e-03
      -1.84185535e-03 -1.95054663e-03 -9.56440251e-03 1.06663313e-02
      1.72516257e-02 -8.37672129e-03 1.13075413e-02 1.01029463e-02
      1.13720552e-03 -1.03799971e-02 7.58308545e-03 1.57945063e-02
      8.72557145e-03 -1.09583605e-03 2.53233034e-03 1.67345535e-02
      3.00576398e-03 4.38750209e-03 9.75705311e-03 -8.08581617e-03
      -1.20056346e-02 -1.08932098e-02 -1.08861309e-02 -1.24866692e-02
      -4.63573216e-03 -5.56716044e-03 -1.71473473e-02 2.40763905e-03
      2.89283018e-03 -1.11160614e-02 9.02208965e-03 6.55879441e-04
      -2.37964019e-02 -2.43312735e-02 -5.72110061e-03 4.07069176e-03
      1.06417330e-03 -7.47439044e-05 -1.78906564e-02 -2.55897641e-03
      1.81942414e-02 -8.02084338e-03 1.75826680e-02 2.06204783e-02
      -1.04919830e-02 -1.85020808e-02 -1.16507371e-03 9.65187140e-03
      5.51263941e-03 2.23366451e-03 1.38279644e-03 9.11269430e-03
      1.81310568e-02 5.16455248e-03 9.40512214e-03 1.10003483e-02
      -1.27005456e-02 -8.70608538e-03 1.59263785e-03 9.70044080e-03
      2.17008553e-02 1.92772541e-02 5.37146861e-03 1.92587953e-02
      3.11015872e-04 -1.73178539e-02 1.56577758e-03 -1.95701187e-03
      -1.97127610e-02 -2.51313113e-02 5.07210474e-03 6.17576670e-03
      -5.53046353e-03 1.51567999e-03 -9.79861245e-03 -3.01866001e-03
      3.17877880e-03 -1.61876250e-02 -2.02515372e-03 -7.87020288e-03
      -1.77380331e-02 -5.84520726e-03 -5.75916050e-03 -1.62454159e-03
      4.55941493e-03 6.09670952e-03 -1.54410237e-02 5.39939897e-03
      1.25234202e-02 7.34896632e-03 1.34852184e-02 1.40588097e-02
      2.88641732e-03 6.67777285e-03 -6.58899313e-03 2.59128585e-03
      1.35647058e-02 1.54477414e-02 3.22058005e-03 1.65818036e-02
      1.46648474e-02 1.78163697e-03 4.34066728e-03 -6.08935719e-03
      -1.62935592e-02 -3.37485299e-02 -2.11838959e-03 1.29438639e-02
      2.39194725e-02 1.92646049e-02 -3.42459232e-03 1.84190776e-02
      2.03042393e-04 -7.02026207e-03 1.12193841e-02 -3.03935003e-03
      -7.77617272e-04 8.10945220e-03 8.59944057e-03 -1.17695266e-02
      -3.66205629e-03 7.08776060e-03 -1.26425549e-02 1.72084221e-03
      2.44590780e-03 -1.60734989e-02 7.33765867e-03 -8.82044900e-03
      -4.70240414e-02 -3.30871791e-02 4.12883237e-03 4.34841821e-03
      1.39168687e-02 1.63932350e-02 -1.48389209e-02 1.71647198e-03
      1.19180810e-02 -9.40013444e-04 1.59043688e-02 4.54813940e-03
      -3.62807303e-03 -2.53197942e-02 1.02030747e-02 1.34277586e-02
      1.64802205e-02 1.63964704e-02 -3.28674237e-03 1.09754931e-02
      1.00316452e-02 2.03243596e-03 1.76280346e-02 9.80414636e-03
      6.44966960e-03 -8.93682055e-03 1.87523961e-02 1.11368401e-02
      7.44267087e-03 3.20543745e-03 -1.71723273e-02 3.27983615e-03
      1.47314719e-03 -5.64534590e-03 1.31330080e-02 4.66783950e-03
      -2.14857478e-02 -1.76534820e-02 9.61185247e-03 7.01137958e-03
      1.04807448e-02 6.02893718e-03 -2.84834690e-02 -1.45208491e-02
      2.61896034e-03 -3.38511262e-03 4.66664275e-03 1.08762989e-02
      -1.62963644e-02 -1.29074017e-02 1.00605125e-02 4.33221087e-03
      -5.40213287e-03 -1.23318173e-02 -3.62744704e-02 -1.68119967e-02
      4.57501877e-03 -4.29270929e-03 1.19055472e-02 1.14684990e-02
      1.00894980e-02 6.78597207e-05 -5.17931301e-03 1.51271035e-03
      -1.00467660e-05 -8.98690801e-03 -1.98869184e-02 3.57149867e-03
      -4.97166486e-03 -1.69551671e-02 9.17484052e-03 5.15985303e-03
      1.31473993e-03 4.28445032e-03 9.20872297e-03 1.28815351e-02
      8.18054937e-03 -5.81070222e-03 -7.57160410e-03 2.32361294e-02
      -2.89382882e-07 -7.56750489e-03 7.48124579e-03 1.21884989e-02
      -3.60520184e-03 -1.53832119e-02 -6.44033728e-03 5.63429669e-03
      -1.49431145e-02 -2.65194252e-02 -3.18498500e-02 -9.43023525e-03
      1.13584683e-03 -7.11150747e-03 9.90442466e-03 -6.18271530e-04
      -2.04893760e-02 2.19666609e-03 -1.59563888e-02 1.17404052e-04
      -6.58810232e-03 -1.35479849e-02 -7.43693765e-03 8.95666075e-04
      1.18350172e-02 8.72041390e-04 2.07411032e-02 1.99801475e-02
      2.96587194e-03 -9.63423867e-03 2.57867249e-03 1.41937416e-02
      1.10716829e-02 1.01029780e-03 -7.49716477e-04 1.97495278e-02
      2.20997557e-02 6.51565054e-03 1.22192036e-02 2.74643805e-02
      4.48517734e-03 -2.83530094e-02 -2.26899032e-02 -4.82508820e-03
      3.95412790e-03 8.82526487e-03 -8.55430262e-05 1.98776275e-02
      9.09998640e-03 3.76981287e-03 1.49912909e-02 1.80687662e-02
      -6.04221877e-03 -1.29764238e-02 -9.40636732e-03 6.65146206e-03
      3.80122825e-03 2.22364347e-03 -5.39719779e-03 6.17731875e-03
      1.59687698e-02 9.32367612e-03 1.45058371e-02 2.59611402e-02
      7.63918180e-03 -3.37441415e-02 -2.31432989e-02 -5.20419981e-03
      -6.97998470e-03 -4.93194675e-03 -1.13046560e-02 7.03206751e-03
      1.80763323e-02 -3.56553384e-04 4.53564059e-03 1.79843754e-02
      3.01702204e-03 -1.82914454e-02 -1.50047634e-02 -4.58683027e-03
      -4.41255234e-03 -5.98862162e-03 -5.16160531e-03 1.47150867e-02
      1.27254799e-02 8.99087545e-03 6.75127562e-03 1.75471306e-02
      -3.13182757e-03 -4.91559831e-03 -3.12317221e-04 8.56063515e-03
      1.01009309e-02 3.30736651e-03 3.50420806e-03 5.85057773e-03
      8.30257963e-03 -4.11134562e-04 3.85789690e-03 1.68081038e-02
      2.29580817e-03 -2.68684216e-02 -1.96598284e-02 -1.05676409e-02
      -9.01602395e-03 -3.24797537e-03 -1.76967436e-03 9.26244166e-03
      1.60237793e-02 -3.14328994e-04 5.82414260e-03 9.66577325e-03
      -1.20351715e-02 -1.39967212e-02 -5.77716037e-06 1.05963531e-03
      -7.50505226e-03 -4.71063657e-03 8.91869888e-03 1.73973478e-02
      1.45201152e-02 7.17757130e-03 1.07669057e-02 1.72263756e-02
      2.08372134e-03 -1.64216552e-02 -1.21413181e-02 -1.95489288e-03
      2.02290844e-02 1.01235155e-02 3.99586046e-03 5.67284739e-03
      1.43901920e-02 1.02621026e-03 1.42364250e-02 1.79434475e-02
      -3.49864393e-04 -2.95313876e-02 -1.46614118e-02 -8.59824102e-03
      2.01695450e-02 6.59449957e-03 -1.02531957e-02 1.04226535e-02
      1.66633278e-02 1.75062113e-03 4.90434980e-03 1.33584812e-02
      2.20909645e-03 -1.99421979e-02 -1.57241970e-02 2.86472496e-03
      7.38622015e-03 4.54825116e-03 4.57014143e-03 4.49970784e-03
      2.04156414e-02 -6.22345181e-03 2.06316486e-02 2.45070122e-02
      8.72456876e-04 -3.71361710e-02 -2.94621997e-02 -3.01591009e-02
      7.81546161e-03 -2.51658796e-03 -9.79762804e-03 6.55426364e-03
      1.37602156e-02 8.55094637e-04 5.74574526e-03 1.01681845e-02
      -9.88967530e-03 -2.68919002e-02 -7.91179016e-03 1.45694020e-03
      3.57429078e-03 -3.24330525e-03 -1.91497672e-02 6.80983718e-03
      -8.21598247e-03 1.06364925e-04 1.13512082e-02 9.86457802e-03
      -1.19169354e-02 -1.39330663e-02 -1.79137627e-03 1.59931798e-02
      9.40558128e-03 -1.73084190e-04 -1.59150269e-02 -1.27887400e-02
      1.03096887e-02 -4.20016889e-03 1.17503870e-02 2.20808834e-02
      -1.53795956e-02 -2.71377359e-02 -2.51558628e-02 -1.57278180e-02
      -3.40394618e-04 -5.50415181e-03 -1.36453826e-02 5.66436909e-03
      -1.59540437e-02 3.22628813e-03 2.20614672e-02 1.69263054e-02
      -2.16413923e-02 -1.34896683e-02 6.25656161e-04 -1.31587335e-03
      1.15519017e-03 1.57015771e-03 -4.76395106e-03 -2.01940760e-02
      3.15597542e-02 1.06462995e-02 1.83265395e-02 6.94335345e-03
      -2.40427274e-02 -1.89496949e-02 -1.49994278e-02 -3.01524401e-02
      -1.56332797e-03 1.18944654e-02 1.71119208e-03 2.19031367e-02
      2.36401092e-02 1.40403258e-02 1.23118293e-02 4.65401355e-03
      -2.31110118e-02 -2.60951743e-02 -9.87416133e-03 -7.77031202e-03
      1.39864592e-03 8.78214370e-03 9.45604127e-03 1.75342858e-02
      2.61151120e-02 1.35613065e-02 2.05033496e-02 1.02229584e-02
      -1.49690565e-02 -1.56632662e-02 -2.84665152e-02 -4.06482629e-02
      -6.25078985e-03 1.02843782e-02 -5.06062352e-04 1.78305916e-02
      1.29312733e-02 8.40777624e-03 1.28571661e-02 6.77486649e-03
      -1.14565538e-02 -2.08644196e-02 -1.93796083e-02 -3.85304317e-02
      4.61842678e-03 2.28177849e-02 7.24769337e-03 1.07671078e-02
      1.62165016e-02 1.06542259e-02 9.57373530e-03 1.21726550e-03
      -3.44465906e-03 -2.01032218e-02 -3.01234666e-02 -1.68509446e-02
      -4.62396769e-03 1.09407830e-03 -1.93881767e-03 4.00931388e-03
      1.72259491e-02 1.26000112e-02 1.14067709e-02 1.92000275e-03
      -9.33962036e-03 -9.01293661e-03 -3.61095299e-03 2.79250625e-03
      4.33710124e-03 -5.86785655e-03 -3.57155525e-03 4.12394013e-03
      1.17883561e-02 1.05605111e-03 6.64893072e-03 -5.63408760e-03
      -1.63974669e-02 -1.25478925e-02 -2.40503941e-02 -3.21431383e-02
      -7.74906110e-03 6.54810527e-03 -3.22343316e-03 4.54662647e-03
      1.78907011e-02 2.48423754e-03 5.90681471e-03 -2.95377197e-03
      -6.99266000e-03 -4.83944081e-03 -9.21647996e-03 -1.80377495e-02
      -6.06756285e-03 -3.65099753e-03 -9.01901256e-03 4.51828167e-03
      1.01163704e-02 8.26731510e-03 1.10460203e-02 1.03400825e-02
      -5.59266843e-03 -1.67365912e-02 -3.71349626e-03 -1.24548504e-03
      6.51936186e-03 4.68515186e-03 -1.49941817e-03 8.22147354e-03
      9.40743834e-03 3.58992722e-03 3.33282677e-03 8.32144171e-03
      -2.37606689e-02 -3.51587906e-02 -2.26563197e-02 -1.67033505e-02
      4.99692699e-03 1.11332983e-02 8.69719032e-03 1.54304914e-02
      1.40975872e-02 -4.96939989e-03 3.37899104e-03 1.58961993e-02
      8.04507174e-03 -7.96091859e-04 6.28847908e-03 -1.15935737e-02
      -8.30267183e-03 -1.13531169e-04 -5.47214178e-03 6.97023934e-03
      3.14266980e-03 -8.99502449e-03 -8.10994208e-03 6.53952872e-03
      -2.01438298e-03 -3.27282841e-03 -1.46801965e-02 -2.57673785e-02
      -1.86099000e-02 5.48603060e-03 1.30436732e-04 9.98045597e-03
      1.57215763e-02 1.24435304e-02 8.40490777e-03 1.65350307e-02
      -1.07238069e-02 -1.50732668e-02 -1.15949381e-02 -1.44964950e-02
      5.48036397e-03 6.27178932e-03 1.26836793e-02 1.68701541e-02
      4.90813842e-03 3.87717667e-03 2.71118386e-03 1.93305954e-03
      -2.37143859e-02 -2.62975190e-02 -1.56440847e-02 1.50953792e-02
      2.12380420e-02 9.18905158e-03 4.02976153e-03 2.06786976e-03
      2.91527685e-04 7.63704441e-03 6.95857569e-04 1.04839299e-02
      -7.31580984e-03 9.95249767e-03 -1.77702797e-03 -1.22869387e-02
      -1.53918308e-03 2.40394240e-03 2.16129422e-03 4.10267245e-03
      -4.61194385e-03 1.09323824e-03 -7.39186117e-03 -8.16116109e-04
      -2.02683844e-02 -1.26234973e-02 -9.95659968e-04 1.11444006e-02
      2.15411559e-02 5.12692379e-03 -1.07902689e-02 -2.05452628e-02
      -7.63950450e-03 -3.49233020e-03 4.81126644e-03 7.45618204e-03
      -1.09346900e-02 -1.61591992e-02 -7.06206914e-03 1.50627382e-02
      1.82916112e-02 1.66915916e-02 2.40581343e-03 -2.61395238e-03
      -5.84038813e-03 -9.45797190e-03 4.91788471e-03 1.09027047e-02
      -1.15917670e-02 -3.27799760e-04 8.90776329e-03 -2.69025052e-03
      3.89753398e-03 9.00719408e-03 6.66963868e-03 -6.29615085e-03
      -2.04678476e-02 -7.27681257e-03 2.21008970e-03 6.69087516e-03
      -8.58664326e-03 -6.04635989e-03 6.74675405e-03 2.43212432e-02
      2.51337364e-02 8.72636214e-03 -1.72467437e-02 -2.78720502e-02
      -1.57829262e-02 -8.43493175e-03 1.48571841e-02 1.17958104e-02
      -7.26103131e-03 7.13274162e-03 1.42894685e-02 -7.09281908e-03
      2.37645814e-03 2.23105424e-03 -7.98953418e-03 -2.61724871e-02
      3.34014604e-03 4.41615412e-04 1.64184701e-02 2.09725183e-02
      6.46396121e-03 1.88984454e-03 -2.98545277e-03 -1.16277896e-02
      3.63862235e-03 1.14152412e-04 -3.27515445e-04 -8.26417096e-03
      7.08871242e-03 1.09049147e-02 2.05587428e-02 1.57145131e-02
      1.17252450e-02 -3.77122778e-04 -1.95191018e-02 -2.86781532e-03
      1.86344124e-02 1.47099011e-02 4.90275072e-03 3.49080446e-03
      -8.09570123e-03 -4.08411585e-03 1.07367523e-02 2.19924394e-02
      3.98121867e-03 6.57311035e-03 1.72549635e-02 -9.54968482e-03
      2.78084626e-04 -6.79363450e-03 -1.40523911e-02 -8.80384911e-03
      -5.59454551e-03 5.51291218e-04 1.24953473e-02 1.03338612e-02
      5.61371539e-03 7.97534920e-03 2.20128130e-02 6.90708356e-03
      6.55964389e-03 9.53030214e-03 -7.54893152e-03 -6.92819944e-03
      5.39938395e-04 5.10143209e-03 1.54057732e-02 3.44992685e-03
      1.44385314e-03 -9.29875672e-03 -2.62944046e-02 -3.24999378e-03
      1.42318951e-02 1.46321161e-02 -4.31867363e-03 -3.75008397e-03
      1.49184205e-02 1.11290831e-02 1.95562299e-02 1.93073843e-02
      -9.56399192e-04 -2.07653455e-02 1.55487494e-03 1.58642866e-02
      1.02045974e-02 4.42134123e-03 -3.25281802e-03 8.19163769e-03
      -1.25178304e-02 -9.52154677e-03 4.50281799e-03 3.50078521e-03
      -5.17152157e-03 2.24160380e-04 1.19190495e-02 -4.84123913e-04
      -3.98214115e-03 -3.94391769e-04 -4.67415946e-03 -4.80932649e-03
      1.48486451e-03 -1.68403596e-04 1.90355554e-02 2.06580088e-02
      3.05408542e-03 -1.14472257e-02 -3.19833332e-03 -7.18037318e-03
      -1.41867846e-02 -1.09784761e-02 -1.54586975e-02 1.76797796e-03
      5.54366456e-03 -1.41843420e-03 2.40500271e-03 9.02371109e-03
      -1.56003051e-03 -2.27061957e-02 -6.18941803e-03 1.32783467e-03
      -5.50177600e-03 3.65389488e-03 3.57200322e-03 8.08252115e-03
      1.11644538e-02 -3.93119594e-03 8.94367043e-03 2.47012335e-03
      -5.02529321e-03 -2.71775499e-02 -1.87362786e-02 -7.84357451e-03
      9.95451701e-04 1.67376902e-02 1.56357028e-02 1.56412385e-02
      -3.61689425e-04 -9.56341531e-03 6.66663423e-03 1.99118033e-02
      -9.01636388e-03 -2.14211326e-02 -1.46255801e-02 -1.52990287e-02
      -1.22618442e-02 1.48915616e-03 6.29414851e-03 5.30352257e-03
      -3.89406830e-03 -8.71087331e-03 3.17405816e-03 1.30526368e-02
      -1.77733675e-02 -2.59307604e-02 -1.50838504e-02 -2.15223953e-02
      -8.37381650e-03 2.06979122e-02 1.18749877e-02 6.94729667e-03
      6.53966516e-03 7.17319408e-03 2.27574818e-02 1.04202637e-02
      4.08825558e-03 -3.91233843e-05 -1.67652722e-02 -1.40412925e-02
      3.02151265e-03 1.38275540e-02 6.28339360e-03 4.68324497e-03
      3.81286582e-03 1.20028965e-02 3.04245036e-02 1.36523899e-02
      -2.82155890e-02 -1.94636136e-02 -4.05717548e-03 -6.52238447e-03
      2.58422680e-02 2.12486871e-02 2.40206090e-03 -1.38755767e-02
      -1.00505608e-03 2.38275295e-03 1.26413079e-02 9.00174771e-03
      -1.15061542e-02 -2.92428373e-03 -1.41990976e-02 -8.02774634e-03
      2.84984795e-04 1.49898818e-02 6.02218090e-03 -6.65597199e-03
      -6.39044028e-03 2.03978131e-03 1.46877505e-02 1.19624306e-02
      -2.69516259e-02 -1.74478963e-02 -7.64335087e-03 -1.11737549e-02
      2.05544475e-02 8.07146076e-03 -2.53090705e-03 -2.13786718e-02
      -4.93438973e-04 1.87665001e-02 3.13111544e-02 2.19024792e-02
      -7.50755426e-03 -1.63611316e-03 5.37082134e-03 -2.11029220e-03
      9.37986560e-03 3.17446399e-03 -1.34746348e-02 -2.30849162e-02
      2.94244080e-03 1.63892563e-02 2.94246543e-02 2.15832088e-02
      -1.20558133e-02 -3.21371225e-03 1.16929989e-02 9.55560338e-03
      -8.35497282e-04 -1.25958612e-02 -2.16629580e-02 -1.33925816e-02
      -1.51714664e-02 5.00008091e-03 1.59525424e-02 1.69302244e-02
      -1.57471467e-02 -9.99942981e-03 1.34899970e-02 1.45213865e-02
      2.01708376e-02 -3.55798844e-03 -2.14655306e-02 -2.11377535e-02
      -1.43299904e-02 -5.31065045e-03 1.13259489e-02 2.24423390e-02
      -8.17370228e-03 1.06218336e-02 2.12503653e-02 1.84373464e-02
      9.24785435e-03 -7.00727105e-03 -3.64458077e-02 -2.17594653e-02
      9.88773629e-03 3.69469472e-03 1.95101220e-02 1.05627077e-02
      -7.53324805e-03 -4.54377336e-03 2.70044128e-03 7.61721237e-03
      -4.41147422e-04 -1.67455915e-02 -2.37431563e-02 -9.69532935e-04
      6.24665571e-03 1.28604821e-03 1.96892414e-02 3.13520245e-03
      -4.09428822e-03 1.17568932e-02 1.00390858e-03 4.01059957e-03
      9.18106642e-03 -6.91077439e-03 -7.96618685e-03 6.75279787e-03
      -9.49065853e-03 -5.83834108e-03 2.30965624e-03 6.03113743e-03
      -8.50865245e-03 1.05752833e-02 1.70472600e-02 -1.69033126e-03
      -7.07712816e-03 -2.67763548e-02 -3.13556120e-02 -2.28608157e-02
      -4.31996910e-03 -1.50805749e-02 5.75606199e-03 4.41541150e-03
      -4.14458849e-03 2.24755425e-02 2.18205638e-02 -8.31582118e-03
      -6.31967280e-03 -3.15019898e-02 -2.08614450e-02 -1.06500946e-02
      1.40408743e-02 9.40040220e-03 9.99605749e-03 7.76051031e-03
      -2.39720405e-03 -1.16036544e-02 3.50154028e-03 7.24881748e-03
      2.84957490e-03 1.03013497e-02 2.43459456e-03 7.87471514e-03
      1.89175457e-02 1.87961813e-02 1.26380781e-02 1.22285206e-02
      4.93165804e-03 -2.75040865e-02 -1.21337399e-02 1.25479372e-02
      5.47689945e-03 5.16125746e-03 -5.70373563e-03 4.07352298e-03
      6.70788344e-03 -9.29151778e-04 3.45621072e-03 7.19531905e-03
      -3.81634221e-03 1.71204435e-03 8.26868229e-03 9.88471601e-03
      -1.24040793e-03 -1.33629935e-02 -9.42306966e-03 -3.11752991e-03
      9.52526834e-03 6.52639940e-03 8.84358026e-03 -3.25186062e-03
      -1.01641221e-02 -5.84119558e-03 1.14313990e-03 1.15311407e-02
      1.06686950e-02 1.29442499e-03 -1.56107126e-02 -4.51529771e-03
      2.04927363e-02 8.28587450e-03 7.66135426e-03 7.75436079e-03
      1.85119791e-03 -3.72708365e-02 -2.18949541e-02 -1.21875210e-02
      1.70484360e-03 6.43151812e-03 -2.09623622e-03 1.55459112e-02
      2.02614609e-02 1.06847472e-02 1.09946476e-02 1.83797646e-02
      6.73660543e-04 -1.27669135e-02 -7.26778759e-04 -1.77404657e-02
      -8.18596222e-03 7.10164011e-03 1.37347439e-02 2.42500622e-02
      1.07393274e-02 2.84722541e-03 8.11871514e-03 4.34415706e-04
      -1.43087767e-02 -2.19282359e-02 -4.50855773e-03 -1.37480593e-03
      -4.07738658e-03 -7.17770308e-03 -1.04287341e-02 -5.73070720e-04
      1.11985663e-02 1.15721123e-02 1.16967428e-02 1.95641611e-02
      -2.92109884e-03 4.98041278e-03 5.82197309e-03 -1.48103610e-02
      -1.36605706e-02 -1.10358167e-02 -7.86579493e-03 1.33872209e-02
      1.75695065e-02 1.14171701e-02 1.77649837e-02 2.48772651e-02
      1.31476484e-03 -1.75587013e-02 -1.65223740e-02 -2.52916068e-02
      -7.03164656e-03 4.93226713e-03 8.22336972e-03 1.55088985e-02
      2.12307200e-02 6.98521594e-03 1.80600807e-02 2.35616416e-02
      9.09279473e-03 -4.02698666e-02 -5.07146195e-02 -4.72081155e-02
      -4.92847431e-03 2.46385206e-03 6.64572697e-03 1.68510638e-02
      2.04407927e-02 9.75061301e-03 1.21365404e-02 1.86894294e-02
      -1.43732503e-02 3.75266559e-03 2.94690230e-03 -2.06891131e-02
      -2.79094023e-03 3.63058434e-03 6.09588437e-03 2.17976347e-02
      3.07746809e-02 1.43068470e-03 1.07064229e-02 2.57968414e-03
      -1.68161951e-02 -1.25820087e-02 -2.22150721e-02 -3.71058993e-02
      -1.09627740e-02 -3.29171494e-03 5.38436975e-03 2.20609978e-02
      1.74521860e-02 -4.55728936e-04 1.34050166e-02 2.47171596e-02
      2.04719719e-03 -2.74809804e-02 -5.01194522e-02 -2.97518242e-02
      -4.38110577e-03 -3.03623383e-03 2.05114600e-03 1.92336924e-02
      -8.31489637e-03 3.58223263e-03 1.64463893e-02 2.43408754e-02
      -1.90521183e-03 -3.70062552e-02 -1.54893957e-02 -5.62822446e-04
      7.85648078e-03 9.28865839e-03 6.38857856e-03 -8.87172529e-04
      1.85816418e-02 -5.18392364e-04 6.64680498e-04 5.23236766e-03
      -1.01407934e-02 -2.55306531e-02 -3.34552824e-02 -2.43971013e-02
      -3.04336706e-03 -2.32631550e-03 1.21409982e-03 2.34986749e-02
      -1.30891018e-02 7.44571816e-03 1.10053774e-02 1.17793623e-02
      -2.83015473e-03 -2.62409970e-02 -1.52709372e-02 -4.88513894e-03
      2.15905737e-02 9.16646607e-03 2.26834696e-03 -1.28099397e-02
      2.25446336e-02 1.55857112e-02 1.48691339e-02 1.55663779e-02
      4.17820271e-03 -1.02632390e-02 -3.09901685e-02 -3.19021158e-02
      3.85506428e-04 6.34133630e-03 1.93556014e-03 1.68406107e-02
      2.00488791e-02 1.54958554e-02 9.43552703e-03 1.20434584e-02
      -1.39123388e-03 -2.23861691e-02 -3.20204608e-02 -2.79618558e-02
      8.72521382e-03 2.55787894e-02 1.35026602e-02 1.50488159e-02
      2.93315090e-02 2.34008804e-02 2.70035286e-02 1.50989117e-02
      2.72758119e-03 -2.25460459e-03 -3.13397944e-02 -2.73046140e-02
      -1.29554924e-02 5.52523474e-04 -1.27453881e-04 1.60474461e-02
      3.37142013e-02 1.88842956e-02 3.08098495e-02 1.07995039e-02
      -6.43366668e-03 -2.09079683e-02 -3.09772547e-02 -2.81212330e-02
      4.67879325e-03 2.15895530e-02 2.82449857e-03 2.17343029e-02
      1.12647861e-02 1.08855392e-03 1.09017771e-02 7.79342465e-03
      -8.45127832e-03 -1.49622019e-02 -1.39274560e-02 -2.69601755e-02
      -9.01865028e-03 1.08928746e-02 1.03220008e-02 8.71255901e-03
      1.88727770e-02 5.31459693e-03 9.97812208e-03 1.15089715e-02
      -1.03464266e-02 -4.60873917e-03 7.30043044e-03 -2.46460526e-03
      -1.81759882e-03 8.12317710e-03 1.25587890e-02 1.31115494e-02
      1.53327351e-02 1.23234633e-02 2.16415040e-02 -2.36956798e-03
      -1.36601226e-02 -1.91096459e-02 -1.92911197e-02 -2.70692278e-02
      -1.37844949e-03 1.90782361e-02 5.96671691e-03 1.52122006e-02
      7.30077783e-03 4.34973073e-04 1.01168966e-02 -4.14454378e-03
      -1.77106801e-02 -1.34984404e-02 -3.76728619e-03 -8.45525414e-03
      1.19939987e-02 2.46088263e-02 1.48925968e-02 1.12698786e-02
      2.04952583e-02 7.30778975e-03 8.23769066e-03 9.04491823e-03
      8.04413285e-04 -3.48354597e-03 -3.50257591e-03 -6.77981181e-03
      1.63183198e-03 7.46935932e-03 9.95803718e-03 1.56576876e-02
      7.70427613e-03 5.98019047e-04 9.60299221e-04 7.73725566e-03
      1.86030287e-03 -5.58330305e-03 -9.97952558e-03 -2.56006066e-02
      -4.59730113e-03 4.31952905e-03 4.64136200e-03 1.26070557e-02
      9.28995013e-03 8.21877364e-03 8.27158429e-03 -6.75095187e-04
      -8.67359433e-03 -1.58640072e-02 -1.18504455e-02 -1.18018687e-02
      9.82401986e-03 9.78185702e-03 1.30615961e-02 1.32817421e-02
      5.52462135e-03 -1.35926378e-03 1.38594750e-02 1.43055860e-02
      -4.65308502e-03 -3.38396765e-02 -1.21293915e-02 -2.55439039e-02
      4.63726232e-03 9.27796494e-03 1.37543511e-02 9.76864062e-03
      5.41167427e-03 1.08598350e-02 1.02826506e-02 1.92469638e-02
      7.52940495e-03 1.84730329e-02 4.47845599e-03 -5.46735665e-03
      4.28002840e-03 9.99651570e-03 5.23184892e-03 1.61859940e-03
      2.78589723e-04 1.31258741e-02 9.59935784e-03 1.38084264e-02
      -1.43408766e-02 -7.29318848e-03 1.30001027e-02 1.19687552e-02
      2.49759890e-02 1.95645299e-02 -1.10539123e-02 -8.01545754e-03
      6.78331533e-04 -9.50597599e-03 1.56189967e-02 1.70738921e-02
      4.81855823e-03 5.88598568e-03 1.28120100e-02 -4.51784022e-03
      1.55927762e-02 2.03441419e-02 1.24357296e-02 3.60252359e-03
      -4.86898096e-03 -9.32419393e-03 9.73841362e-03 1.79770589e-02
      -1.55573245e-02 -2.19971361e-03 8.13063234e-03 -8.45186412e-03
      1.50166163e-02 9.94749740e-03 -1.98611990e-02 -1.09095564e-02
      1.88402919e-05 1.08251898e-02 1.67357158e-02 1.00698695e-02
      -1.53698064e-02 -6.04294892e-03 9.73381475e-03 4.19688690e-03
      1.26155000e-02 1.21213142e-02 -8.84574279e-03 -9.96887404e-03
      4.79390612e-03 1.10504562e-02 2.74139456e-02 1.40539519e-02
      -1.10022686e-02 8.04352574e-03 8.44537094e-03 -9.45921522e-03
      8.16681248e-04 1.58832371e-02 -5.82784531e-04 -4.04556468e-03
      -4.22945991e-03 5.54012740e-03 1.16348034e-02 1.33774625e-02
      -1.88674442e-02 -7.90302455e-03 1.19534356e-03 -1.38871204e-02
      -1.57094689e-03 -6.11282140e-03 -1.66778658e-02 -7.63822766e-03
      1.83564108e-02 2.18768464e-03 4.96641221e-03 5.56407683e-03
      -3.02181058e-02 -6.50742278e-03 1.53612951e-02 -3.11810174e-03
      -2.36171833e-03 7.82917906e-03 -3.81217641e-03 -6.42227009e-03
      9.07495804e-03 1.00330906e-02 1.94371808e-02 1.67014375e-02
      -8.96371901e-03 7.60976039e-03 1.54951345e-02 -4.94605862e-03
      -8.56648292e-03 7.82300311e-04 1.95841561e-03 -1.51863822e-03
      1.14355292e-02 3.65032931e-03 2.13669464e-02 1.44922705e-02
      -1.52986841e-02 1.23217236e-03 2.95105241e-02 1.22915292e-02
      1.83331221e-03 9.67278332e-03 9.32467636e-03 1.15872687e-02
      3.25561524e-03 7.44422944e-03 2.02363972e-02 1.42506985e-02
      -1.70763694e-02 2.07445468e-03 2.86946800e-02 3.30671645e-03
      -6.94076065e-03 5.67241665e-03 7.01869465e-03 -3.02739488e-03
      5.41063584e-03 -2.67154654e-03 2.43502799e-02 1.70841422e-02
      -2.47907359e-02 -2.36224998e-02 1.44783687e-02 4.72470140e-03
      -9.61738825e-03 2.40053469e-03 2.50472664e-03 1.61871575e-02
      7.03387568e-03 -1.67188258e-03 8.73531215e-03 -2.51796632e-03
      -1.85852516e-02 -2.18150904e-03 5.24757290e-03 -5.30870818e-03
      -9.72086005e-03 9.13541857e-03 6.50138641e-03 1.76466517e-02
      9.22660436e-03 -7.99637695e-04 1.34919612e-02 9.37200617e-03
      -1.16593896e-04 1.00822859e-02 -2.66527059e-03 -3.72124137e-03
      6.55547343e-03 1.42904483e-02 6.81655342e-03 1.47853140e-02
      1.49152884e-02 -2.21292884e-03 9.14693438e-03 -7.82483350e-03
      -3.84313501e-02 -2.54063699e-02 1.62453880e-03 -1.37829985e-02
      -2.08129976e-02 -3.74475308e-03 2.48168153e-03 1.62444636e-02
      2.44338643e-02 3.20320437e-03 3.85144283e-03 -6.26715971e-03
      -8.97658523e-03 -8.22904985e-03 4.76578763e-03 -1.84540097e-02
      -4.39130748e-03 9.92673822e-03 1.00356340e-02 2.05100477e-02
      1.57831609e-03 -3.97971692e-03 1.39293987e-02 1.77561995e-02
      -1.06852991e-03 -1.27024120e-02 -1.62775405e-02 -1.31394286e-02
      1.29165431e-03 1.31303463e-02 1.62319336e-02 6.85807737e-03
      5.39612025e-03 -1.13126601e-03 1.35343764e-02 2.16514971e-02
      -1.42605640e-02 -2.19268966e-02 7.95282423e-03 -3.16075515e-03
      -2.26521608e-03 1.92360990e-02 1.84860304e-02 7.14860158e-03
      9.47273150e-03 -4.04716376e-03 5.14183193e-03 7.22806028e-04
      -9.01229866e-03 -2.25706585e-02 -7.75381038e-03 -8.61187279e-03
      -1.75825971e-05 4.71991207e-03 1.38910497e-02 7.50966510e-03
      3.56527744e-03 -5.99199533e-03 1.81035250e-02 2.16922387e-02
      -9.32951178e-03 -1.53668756e-02 8.76963045e-03 -9.10970441e-04
      -3.26299854e-03 3.69275245e-03 1.14779137e-02 4.55526775e-03
      9.31924488e-03 9.35462024e-03 9.74036660e-03 1.15099298e-02
      5.65605797e-03 8.22917966e-04 1.15730446e-02 -8.05588090e-04
      -6.85810950e-03 1.30464574e-02 9.04838741e-03 2.84604495e-03
      4.86490037e-03 -3.55121656e-03 5.73372096e-03 1.97258405e-02
      -5.02038561e-03 -3.69106792e-02 -4.71346965e-03 4.75903600e-03
      2.17425283e-02 1.61083378e-02 8.19685310e-03 5.09464927e-03
      1.24560818e-02 6.99066278e-03 1.55423963e-02 1.08303158e-02
      -3.61309014e-03 3.81586864e-03 1.47630675e-02 -1.30630250e-03
      -8.04224890e-03 3.76351294e-03 5.84600773e-03 9.95135680e-03
      9.40448139e-03 -3.52289784e-03 1.35629060e-04 6.70588249e-03
      -1.74502693e-02 -3.10441591e-02 6.27127988e-03 -1.54390244e-03
      1.64378136e-02 8.28982424e-03 6.46926556e-03 1.69761088e-02
      3.22830467e-03 6.31218310e-03 2.09005680e-02 2.57569887e-02
      -5.74509008e-03 -2.53780652e-02 1.85256067e-03 3.02152638e-03
      2.32551992e-02 2.38114875e-03 -2.53701350e-03 1.22804509e-03
      -7.83888172e-05 -4.52431710e-03 1.74953230e-02 2.99728513e-02
      -1.59092524e-04 8.61614753e-05 1.66387912e-02 1.16698295e-02
      1.99917499e-02 3.24809668e-03 -6.28799433e-03 -4.70008282e-03
      -2.42229761e-03 -3.64679354e-03 9.77360923e-03 1.92003753e-02
      -7.83768576e-03 -1.00470418e-02 1.57814790e-02 4.46033926e-04
      1.15405982e-02 7.04773143e-03 -4.53392090e-03 7.95389432e-03
      -1.41506149e-02 -1.67298820e-02 8.32020119e-03 1.53538287e-02
      -3.22959153e-03 2.30105128e-02 2.65052598e-02 9.03985649e-03
      6.49068505e-03 6.62194658e-03 -2.68025789e-03 -5.40385908e-03
      -6.50440983e-04 -8.75393301e-03 4.68576327e-03 1.05350828e-02
      -1.84493678e-04 1.31455474e-02 2.21738648e-02 9.22144915e-04
      7.79774366e-03 -6.24308223e-03 -1.20500950e-02 -5.84752474e-04
      8.69391486e-03 8.17374326e-03 1.41419284e-02 1.15766730e-02
      8.67749040e-04 2.15301774e-02 1.83839370e-02 -9.52231139e-03
      -1.84411427e-03 -1.56238731e-02 -6.20865170e-03 -9.81717603e-04
      -1.71402376e-02 -2.05723736e-02 -4.29934589e-03 5.24441421e-04
      -1.78533774e-02 2.15884708e-02 3.00871842e-02 4.08397242e-03
      5.83232520e-03 -1.50142552e-03 -3.31687042e-04 -5.51063288e-03
      -1.01825094e-03 9.14398022e-03 1.61495581e-02 -6.25711260e-03
      -1.50767267e-02 7.51177873e-03 2.64380965e-03 -9.89835244e-03
      -8.21440201e-03 2.11132434e-03 3.18432413e-03 9.90882888e-03
      1.53018506e-02 1.89378709e-02 1.54911047e-02 1.77333187e-02
      3.65119288e-03 -9.43892926e-04 -1.25055034e-02 -1.10128159e-02
      -7.27590267e-03 6.70936657e-03 4.62991558e-03 7.83901836e-04
      1.65127162e-02 1.17491046e-02 1.91716123e-02 1.05515206e-02
      -1.90361985e-03 -1.19689656e-02 -4.90903854e-03 1.45293539e-02
      1.23260189e-02 1.78750735e-02 1.14125125e-02 5.79621783e-03
      2.07486618e-02 2.71076616e-02 2.24914271e-02 1.31959869e-02
      -1.52798451e-03 -1.03795817e-02 -1.03261890e-02 -1.17638782e-02
      -1.49127934e-02 6.02726545e-03 3.45016969e-03 8.61616526e-03
      1.55737391e-02 9.67781432e-03 1.67627148e-02 2.02903207e-02
      -4.77464171e-03 -1.30378930e-02 -3.52526759e-03 4.03558277e-03
      5.50484867e-04 8.72593746e-03 1.43448785e-02 6.45029778e-03
      1.29641462e-02 1.10485600e-02 1.87280569e-02 9.70354304e-03
      -1.48773575e-02 -2.44145710e-02 -7.52933463e-03 4.63475566e-03
      5.80133405e-03 8.31941515e-03 3.42430454e-03 7.15647917e-03
      1.99326258e-02 2.10380666e-02 2.16469206e-02 9.30149946e-03
      -1.25326747e-02 6.87318388e-03 2.11028829e-02 5.48057631e-03
      -4.33631800e-03 6.60551293e-03 5.59095759e-03 2.02098545e-02
      1.25051541e-02 3.38675687e-03 1.38388248e-02 8.28783680e-03
      -1.19106378e-02 -2.15272624e-02 -2.46896669e-02 -1.32629592e-02
      -4.28608712e-03 4.31747921e-03 1.03425169e-02 1.33761093e-02
      2.90661380e-02 1.19164065e-02 1.83019601e-02 -4.15132521e-03
      -2.96676569e-02 -2.19804700e-02 -9.76840034e-03 -1.87776070e-02
      -1.61316302e-02 1.44658964e-02 1.98879521e-02 2.45802701e-02
      2.00525541e-02 8.81530996e-03 1.07328203e-02 7.27484794e-03
      -1.95425600e-02 -4.82558319e-03 1.84305906e-02 -1.06658693e-02
      -7.07038585e-03 3.09104985e-03 9.65293869e-03 1.84655190e-02
      2.39482541e-02 -6.59224694e-04 8.05599801e-03 7.52720283e-03
      -2.24230587e-02 -9.26788338e-03 -1.27180293e-03 -5.67179220e-03
      2.18983227e-03 1.74969016e-03 1.25674661e-02 2.30765771e-02
      1.86153259e-02 1.16221160e-02 8.20275210e-03 1.18850498e-03
      -3.73189412e-02 -1.37308817e-02 8.11771862e-03 -2.94172149e-02
      -1.36867762e-02 1.77622717e-02 1.67414248e-02 1.86045002e-02
      1.00242682e-02 -4.82369261e-03 6.06792513e-04 6.56570774e-03
      -2.36493852e-02 -7.69711146e-03 -1.35488352e-02 -2.76220739e-02
      5.45699429e-03 2.33670734e-02 2.37017423e-02 2.14813892e-02
      1.50506161e-02 4.41717170e-03 2.10464862e-03 -1.43838977e-03
      -1.49108097e-02 -1.54451197e-02 -2.44345162e-02 -1.03501379e-02
      5.30425645e-03 1.48025260e-03 8.72091763e-03 1.63067896e-02
      -2.26854798e-04 1.80332176e-02 1.18188905e-02 7.03919330e-04
      -1.55111691e-02 -2.19591539e-02 -1.81809366e-02 2.71189399e-03
      2.85586379e-02 2.03756411e-02 1.01833334e-02 -4.49229823e-03
      5.35850599e-03 1.90036907e-03 -3.26728751e-03 -1.88277708e-03
      -2.05753110e-02 -1.75544452e-02 -1.91591773e-02 -1.65025070e-02
      7.75018148e-03 2.49009579e-02 2.32763886e-02 1.57935917e-02
      -7.06797233e-03 2.00029183e-02 5.38284285e-03 5.05420472e-03
      -2.44840812e-02 -2.24998239e-02 -2.37716008e-02 -2.40807626e-02
      2.25727968e-02 3.16099264e-02 2.84131970e-02 -4.89790458e-03
      1.90361403e-02 2.05028560e-02 2.88861971e-02 1.77367218e-02
      6.34361478e-03 9.59950686e-03 -2.65200902e-02 -3.28993276e-02
      -2.13954560e-02 -2.26116879e-03 -7.25621032e-03 1.26481410e-02
      2.11543255e-02 1.67102013e-02 3.09944488e-02 1.78978741e-02
      -8.22603423e-03 -2.31969785e-02 -2.92454548e-02 -2.24675052e-02
      5.09962905e-03 1.27073936e-02 -2.28643441e-03 2.24058423e-02
      2.36634035e-02 1.36448229e-02 2.29064822e-02 1.10871000e-02
      1.07579967e-02 5.37789194e-03 -6.03770744e-03 -3.76637392e-02
      -1.72864273e-02 -6.47338806e-03 -1.73050654e-03 2.41630003e-02
      2.74211075e-02 1.27064297e-02 2.57768780e-02 1.52806062e-02
      2.87706591e-03 -1.81398541e-02 -3.12845521e-02 -3.04231606e-02
      4.61783912e-03 6.46776380e-03 -4.85398341e-03 3.27041857e-02
      2.16169879e-02 2.20073499e-02 2.58395113e-02 -8.08829325e-04
      -2.66258437e-02 -2.33609788e-02 -2.95692552e-02 -2.87821051e-02
      1.16375629e-02 1.58596542e-02 4.05481271e-03 2.26786342e-02
      1.95026081e-02 1.41491350e-02 1.96768139e-02 -1.52385281e-03
      -2.65668537e-02 -1.21915042e-02 -1.19223949e-02 -1.46723185e-02
      1.45197241e-02 2.06563100e-02 7.11174868e-03 1.63001660e-02
      2.23292783e-02 2.53319368e-02 2.76471395e-02 1.06096920e-02
      -1.88961141e-02 -1.94308665e-02 -2.46377811e-02 -3.22492048e-02
      3.24218604e-03 7.80849624e-03 -1.17654609e-03 1.82767399e-02
      2.13493817e-02 2.14759763e-02 2.08711065e-02 -1.27588966e-04
      -3.49859856e-02 -1.30341053e-02 -1.41575094e-03 -2.93028336e-02
      3.29344301e-03 1.02612441e-02 5.07698208e-03 2.26397887e-02
      1.31788682e-02 6.39825314e-03 5.21020219e-03 2.75971671e-03
      -1.77468285e-02 -9.49236006e-03 -1.87245980e-02 -1.68133192e-02
      9.50276095e-04 6.18700450e-03 9.24714655e-03 1.62694212e-02
      1.07449805e-02 -2.28855619e-03 4.64098994e-03 1.27257053e-02
      -1.16387773e-02 -2.71785259e-02 -1.36599317e-02 -2.24523358e-02
      6.63483923e-04 2.47388473e-03 6.29242044e-03 1.13260932e-02
      1.97240002e-02 1.32941520e-02 4.16585756e-03 -2.04557111e-03
      -3.14774923e-02 -7.87623506e-03 7.00786849e-03 -2.10802089e-02
      2.04085559e-03 5.78257116e-03 1.07567394e-02 2.33472623e-02
      1.66604668e-02 1.20095746e-03 -7.83247687e-03 8.27997457e-04
      -2.91896034e-02 -1.04380278e-02 -9.11013037e-03 -1.98410396e-02
      3.60740302e-03 1.10932793e-04 -1.21182739e-03 1.09232273e-02
      1.22738173e-02 1.68562972e-03 1.46496864e-02 2.31690630e-02
      2.66138022e-03 2.68506305e-03 5.20265102e-03 -2.32212106e-03
      7.62244640e-03 1.51296277e-02 4.61309310e-03 2.10798788e-03
      7.10363127e-03 1.24668365e-03 1.96014158e-02 1.69905685e-02
      -2.01993063e-02 -2.48952564e-02 -1.99469700e-02 -2.44219527e-02
      -4.38626739e-04 2.97226734e-03 -1.75398216e-02 -4.63886681e-04
      1.74567029e-02 1.51067870e-02 1.46655459e-02 1.80584565e-02
      3.54790129e-03 2.49796323e-02 2.36904174e-02 5.90147357e-03
      1.36876693e-02 3.86548182e-03 -1.22033888e-02 -2.94467667e-03
      1.71539839e-02 1.40251126e-02 3.42502594e-02 2.83074491e-02
      1.58927636e-04 -5.94299333e-03 -1.92149635e-02 -2.22410150e-02
      -7.53781572e-03 -2.16106721e-03 -3.37805562e-02 -1.25040971e-02
      7.79334281e-04 2.64816056e-03 1.46767441e-02 1.78940482e-02
      -1.01441250e-03 -1.64356939e-02 -1.58368032e-02 -2.02344097e-02
      -4.73535946e-03 -5.93215413e-03 -1.15424274e-02 -7.71628087e-03
      -1.69155071e-03 -4.02635522e-03 1.50169025e-03 1.19491303e-02
      -1.78810824e-02 -1.94113108e-03 9.89532843e-03 1.64877926e-03
      4.13718680e-03 -4.94116545e-03 -9.31017101e-04 -1.52956136e-02
      6.82417827e-04 -1.12834782e-03 1.78860910e-02 2.74654869e-02
      8.56178720e-03 -3.03097814e-03 -1.34420842e-02 -2.07231939e-02
      -2.21075653e-03 2.53361813e-03 -1.85973737e-02 -5.53869922e-03
      -1.75767182e-03 -1.67571176e-02 1.76741614e-03 1.45367216e-02
      -1.98646192e-03 1.44794658e-02 2.06735842e-02 -1.68807060e-02
      1.04145007e-02 8.49755853e-03 5.24470070e-03 -7.51531858e-04
      -3.64008569e-03 -3.99628235e-03 3.84588214e-03 4.43451665e-03
      -1.24935871e-02 -5.40667633e-03 2.87428815e-02 3.91906966e-03
      -1.18028745e-02 -3.37518496e-03 3.76319769e-03 -6.08788012e-03
      4.42502648e-03 -5.24311326e-03 1.18521508e-02 4.63969028e-03
      -3.13137360e-02 -2.84007937e-02 1.60070285e-02 -1.40101695e-02
      -1.76232010e-02 -2.38265237e-03 6.80224178e-03 1.84531733e-02
      6.39222935e-03 -5.41081000e-03 6.41269097e-03 1.05031962e-02
      -1.29801966e-02 7.52925314e-03 3.25171612e-02 -3.21881031e-03
      7.40724790e-04 4.76637296e-03 7.09234085e-03 6.30041305e-03
      1.27485255e-02 -5.47756255e-03 1.32230325e-02 6.09723525e-03
      -1.86143648e-02 -8.14794004e-03 2.45933477e-02 1.16613915e-03
      -9.30152647e-03 2.31104554e-03 4.28047543e-03 2.48807669e-02
      1.15360655e-02 2.26770225e-03 8.28671793e-04 -9.06116609e-03
      -3.85422409e-02 -2.47250739e-02 -7.77826295e-04 -2.42659748e-02
      -1.58266369e-02 -1.26709463e-04 9.83456150e-03 1.27747962e-02
      2.74762642e-02 7.23505253e-03 9.47158784e-03 -3.88774695e-03
      -2.67416984e-02 -1.85948536e-02 -3.74865346e-03 -1.85361616e-02
      -1.35657669e-03 1.34192435e-02 1.86626222e-02 2.30487511e-02
      6.07934175e-03 -3.83813540e-03 2.58361013e-03 5.48525620e-03
      -1.66686028e-02 5.90243563e-03 4.56273090e-03 -3.14903818e-02
      -2.15860121e-02 2.27705901e-03 8.16987548e-03 1.60293169e-02
      2.03369465e-02 2.92550889e-03 1.37453275e-02 1.28166070e-02
      -1.28922509e-02 1.86641177e-03 2.69049476e-03 -3.23921926e-02
      -7.61198392e-03 1.91981420e-02 1.16390130e-02 2.30694674e-02
      1.94435120e-02 5.02724620e-03 2.30338145e-03 -3.80951166e-03
      -2.16162913e-02 -2.96687726e-02 -1.20409941e-02 -1.72710940e-02
      -1.30565593e-03 -4.35072085e-04 1.33371279e-02 1.85024459e-02
      4.47940314e-03 -4.36613429e-03 6.14811957e-04 8.96796118e-03
      -2.30790712e-02 -2.93098204e-02 -3.64869775e-04 -8.67726188e-03
      -2.67353561e-03 -6.35330426e-03 -4.43608221e-03 1.29261371e-02
      1.74875464e-02 -3.05587356e-03 6.06295979e-03 3.43292416e-03
      -2.71585099e-02 -2.84072142e-02 -1.29301408e-02 -2.11463533e-02
      -4.29795217e-03 1.46040563e-02 1.29949274e-02 2.17898507e-02
      1.18598854e-03 -1.34702856e-02 5.33307716e-03 9.09969863e-03
      -1.49103068e-02 -2.08285451e-02 -1.42343668e-02 -1.33218197e-02
      2.01433012e-03 3.20423138e-03 -5.88195352e-03 9.27249063e-03
      9.11716465e-03 7.60213891e-03 1.95331108e-02 2.37778611e-02
      -2.06389173e-04 -1.55692520e-02 9.85180307e-03 8.94623064e-03
      2.57783034e-03 2.94080563e-03 -1.96562638e-03 1.24642784e-02
      1.66858248e-02 1.69336200e-02 2.11540069e-02 2.33716667e-02
      -2.12630667e-02 -5.10662086e-02 -7.54167419e-03 9.38999758e-04
      7.13585317e-03 4.98493947e-03 -7.98109546e-03 1.57738067e-02
      -1.16085808e-03 7.14493729e-03 2.95499489e-02 3.79452258e-02
      1.32217472e-02 -1.65022332e-02 1.00240754e-02 8.67098011e-03
      -1.12939859e-03 1.99964317e-03 -1.07770907e-02 3.26693807e-05
      1.19112972e-02 2.43950170e-02 3.51831391e-02 4.76570688e-02
      -1.23242354e-02 -2.46979464e-02 -9.63619072e-03 -1.14812208e-02
      -1.58609152e-02 -2.97070341e-03 -2.93495525e-02 -5.09827863e-03
      7.94555643e-04 3.19217215e-03 1.27310278e-02 1.47385309e-02
      -7.29800528e-03 -1.69013850e-02 1.22980969e-02 -7.37598306e-03
      -8.04643845e-04 -2.76381662e-03 -1.35067953e-02 4.50770371e-03
      -6.81979861e-03 -1.29921027e-02 1.11421281e-02 1.34197744e-02
      2.90348451e-03 1.08846240e-02 2.79435478e-02 4.16557770e-03
      -5.37569728e-03 -1.83950877e-03 -3.94798862e-03 -1.81607774e-03
      -2.03505694e-03 1.30977426e-02 2.60511320e-02 2.87793819e-02
      -6.86987676e-03 5.24623506e-03 8.76845885e-03 -4.81372653e-03
      -8.66202172e-03 2.36891536e-03 -2.26290189e-02 -1.45445177e-02
      -2.91471812e-03 -1.41903721e-02 1.63812451e-02 1.80183910e-02
      -7.92161748e-03 4.99082217e-03 1.92597210e-02 2.67986616e-04
      -2.77750194e-03 6.18153624e-03 -3.23107978e-03 -5.38027706e-03
      -6.84201065e-03 -2.36361641e-02 -7.60230469e-03 1.02398056e-03
      -1.31786345e-02 7.18855159e-03 2.54456289e-02 1.28659897e-03
      -2.60164030e-03 6.09471113e-04 -1.49715357e-04 7.40408781e-04
      1.02114491e-02 -9.06572561e-04 -6.78640418e-03 -9.50790942e-03
      -2.34068800e-02 6.11517206e-03 4.79629915e-03 -8.65585357e-03
      -1.11337770e-02 1.59832137e-03 -1.41922513e-03 2.27324367e-02
      1.20945601e-03 -2.19836794e-02 -3.89358983e-03 1.39953417e-03
      -1.76743995e-02 7.20417406e-03 1.93115193e-02 -5.34524769e-03
      -5.68349287e-03 -2.20996374e-03 -3.32590728e-03 1.66958198e-03
      9.39483009e-03 -2.77452520e-03 -4.72049555e-03 3.89974914e-03
      -2.88715251e-02 1.12265646e-02 2.40078643e-02 -1.73544008e-02
      -9.18645784e-03 3.09694675e-04 -8.26160423e-04 1.28349485e-02
      2.33210251e-02 1.88644119e-02 4.53905016e-03 3.39042512e-04
      -1.78560447e-02 -1.13654258e-02 -1.74271152e-03 -1.26286987e-02
      -1.51363369e-02 6.23641582e-03 6.60815928e-03 1.29486602e-02
      1.26510290e-02 9.69671179e-03 1.26532307e-02 1.21487426e-02
      -8.90957098e-03 -1.79531723e-02 1.59708972e-04 4.62380098e-03
      -7.38334609e-03 1.08118756e-02 1.18537527e-02 8.28522258e-03
      1.77084710e-02 2.43117083e-02 1.66050177e-02 -1.28114398e-03
      -1.57050453e-02 -7.39060203e-03 1.70270391e-02 -2.21303999e-02
      -1.31826559e-02 3.21911508e-03 1.14523023e-02 1.75814666e-02
      2.79893000e-02 2.64382325e-02 3.46090384e-02 2.00004764e-02
      -4.30631172e-03 3.33846372e-04 1.29512474e-02 -1.18738525e-02
      -3.78144276e-03 1.31217623e-02 1.60752274e-02 1.68589372e-02
      2.72787223e-03 1.84756971e-03 4.98000579e-03 2.47003860e-03
      -1.82575490e-02 -2.24235449e-02 -2.25240178e-02 -1.75632760e-02
      -2.62343092e-03 1.18224341e-02 2.16972660e-02 1.10981558e-02
      2.10752841e-02 7.37043750e-03 3.80747416e-03 -8.68838932e-03
      -2.80531626e-02 -3.40820402e-02 1.32663629e-03 -1.76140778e-02
      -5.33079403e-03 1.78257506e-02 2.96707153e-02 2.63040867e-02
      8.08953680e-03 9.73146595e-03 1.67108513e-02 9.08263959e-03
      -7.10561685e-03 -1.57309603e-02 2.81970343e-03 -1.54811535e-02
      1.08048192e-03 6.05254760e-03 1.05165457e-02 6.71138614e-03
      7.49856792e-03 1.31462403e-02 1.04796728e-02 1.04454914e-02
      -1.20936427e-02 -1.30618857e-02 1.68017186e-02 -1.56210782e-02
      4.92156111e-03 1.50405318e-02 2.02295557e-02 2.21601035e-02
      1.36306221e-02 8.30798596e-03 4.33683768e-03 -3.35006067e-03
      -3.59259285e-02 -2.54475959e-02 1.45209460e-02 -1.33954491e-02
      -7.75142433e-03 1.75715629e-02 2.16696355e-02 1.91704985e-02
      6.56859763e-03 2.84559955e-03 5.05704246e-03 2.71329423e-03
      -1.82267576e-02 -2.17803679e-02 -1.46361077e-02 -2.60616150e-02
      -2.90807965e-03 1.39232697e-02 2.87506506e-02 1.66309308e-02
      1.00426432e-02 1.22043192e-02 -5.35926898e-04 7.70790735e-04
      -2.21892260e-02 -2.05578301e-02 2.09488906e-02 -7.80971209e-03
      7.92001002e-03 1.16486559e-02 1.94867682e-02 1.42795732e-02
      9.25687887e-03 2.10786480e-02 1.14263035e-02 7.35170720e-03
      -1.71215609e-02 -1.10863606e-02 -1.01599656e-02 -2.68906020e-02
      -8.44672788e-03 1.03781954e-03 1.58884544e-02 1.79973096e-04
      -2.70732399e-03 1.46093371e-03 6.21571016e-05 -7.70943519e-03
      -1.69775560e-02 -2.24231966e-02 -7.77499424e-03 -2.57941354e-02
      -2.27593677e-03 1.39223002e-02 2.17194762e-02 5.99740120e-03
      -8.41892138e-03 8.89228936e-03 2.46079988e-03 -4.02947277e-04
      -1.66362487e-02 -2.96118874e-02 -8.21816549e-03 -1.61468927e-02
      1.36729814e-02 2.80868877e-02 2.21502092e-02 -8.18409212e-03
      5.36513934e-03 1.27851712e-02 1.17348284e-02 7.09190778e-03
      -2.45338641e-02 -1.95030756e-02 2.97975214e-03 -2.51890589e-02
      -1.73805170e-02 -1.06380628e-02 1.76274462e-03 -9.48954723e-04
      -1.63602866e-02 2.09074765e-02 1.77427884e-02 2.07665861e-02
      -7.07318867e-03 -1.87872071e-02 1.03866216e-03 -1.02713471e-02
      -5.72863384e-04 6.72827009e-03 1.02873622e-02 -1.36118894e-02
      2.00139955e-02 4.94867936e-03 1.60457958e-02 1.23384977e-02
      -2.62330100e-03 -9.30910278e-03 -1.73179079e-02 -3.00186332e-02
      -2.59982911e-03 1.25159742e-02 1.20387813e-02 2.70968359e-02
      2.48439312e-02 9.79139097e-03 1.52998948e-02 1.18051488e-02
      -9.58279055e-03 -5.20359538e-03 -2.44230404e-02 -2.70746592e-02
      1.83853297e-03 2.00859960e-02 9.78088379e-03 2.60418244e-02
      8.87470413e-03 9.36080352e-04 4.43536974e-03 8.52570496e-03
      -1.20684858e-02 -5.40540647e-03 -1.08213257e-02 -2.20751371e-02
      5.25295921e-03 1.93034690e-02 1.48358848e-02 1.43587450e-02
      1.94321759e-02 4.56496462e-04 -6.68359746e-04 3.51101882e-03
      -1.75193734e-02 -3.26571986e-03 -1.80687103e-02 -2.53641307e-02
      1.13673648e-02 3.47696431e-02 2.34675109e-02 2.60656662e-02
      1.80094466e-02 1.57584902e-02 1.72606818e-02 5.14924712e-03
      -1.47385392e-02 -1.66640300e-02 -1.20843500e-02 -2.68828068e-02
      -1.39452066e-04 7.81573821e-03 9.11220675e-04 1.76172517e-02
      1.65156052e-02 1.20383147e-02 1.84436403e-02 4.75930562e-03
      -3.58012319e-02 -1.86459143e-02 1.58833410e-03 -1.32030314e-02
      7.38886883e-03 8.76109861e-03 1.14450185e-02 2.88880225e-02
      1.69308931e-02 1.32789062e-02 1.21789696e-02 -5.97750628e-03
      -2.04837956e-02 -2.38938332e-02 -8.40326399e-03 -2.37439908e-02
      3.26404069e-03 2.60128640e-02 1.47908069e-02 2.50228569e-02
      2.23467387e-02 7.54672056e-03 1.82764065e-02 1.22307744e-02
      -2.97725499e-02 -9.85424779e-03 4.89931274e-03 -2.47111488e-02
      -1.42230084e-02 1.48221282e-02 1.75949093e-02 3.25444415e-02
      1.72131099e-02 1.45083386e-02 1.40285091e-02 9.22357384e-03
      -2.77620181e-02 -1.74969062e-02 1.02613335e-02 -1.76940225e-02
      -2.96916376e-04 3.87613103e-03 4.81734471e-03 1.91521067e-02
      9.20844730e-03 8.94961134e-03 9.54059791e-03 8.02416261e-03
      -2.37909220e-02 -1.76518541e-02 -1.47718135e-02 -1.81531124e-02
      -2.59630522e-03 6.31684298e-03 2.77986238e-03 9.01305582e-03
      1.53918350e-02 2.59904889e-03 1.41286775e-02 2.31008623e-02
      -2.78214701e-02 -1.10454978e-02 1.62526201e-02 -8.65429547e-03
      -1.12452861e-02 1.71399163e-03 6.86687231e-03 1.85515285e-02
      9.07845795e-03 5.95943583e-03 2.01843157e-02 2.41511278e-02
      -3.84477936e-02 -4.07435447e-02 -5.91378380e-03 -1.74812116e-02
      -7.59136688e-04 4.84605832e-03 4.51406976e-03 1.48318568e-02
      4.52494249e-03 8.95824842e-03 7.34837214e-03 1.48550142e-02
      7.39976624e-03 5.23885805e-03 5.19583281e-03 2.86292779e-04
      6.02347450e-03 1.47948624e-03 8.45668328e-05 1.84456911e-03
      6.42078754e-04 5.71343023e-03 1.01271477e-02 1.71785709e-02
      -4.58215550e-03 2.20052642e-03 -8.89889896e-03 -1.38385547e-02
      -2.30925251e-03 -9.53493698e-04 -2.01726370e-02 -1.34047549e-02
      1.21146468e-02 8.71129707e-03 2.04937663e-02 2.23276690e-02
      -1.35069219e-02 -9.16709285e-03 7.65518704e-03 1.71808638e-02
      7.36943027e-03 1.20118409e-02 1.43168103e-02 1.61515307e-02
      -7.54064473e-04 2.56911293e-03 1.70012917e-02 2.26787515e-02
      -1.65575594e-02 -1.22832581e-02 -1.10627841e-02 -1.09596469e-03
      3.67205869e-03 1.19682786e-03 4.25495178e-04 1.88723078e-03
      -6.80094305e-03 -6.30128291e-03 4.83035343e-03 1.00996746e-02
      7.79470848e-03 -4.27548029e-03 -8.03673826e-03 -2.06068791e-02
      3.78910732e-03 5.11279888e-03 -7.66142318e-03 -1.65118538e-02
      -1.55350240e-02 -1.64643545e-02 2.20715278e-03 1.00200465e-02
      1.26564940e-02 1.52400648e-02 1.12972651e-02 -1.06646046e-02
      8.71229265e-03 5.55084506e-03 7.35393772e-03 4.22559772e-03
      -7.01730838e-03 -1.13702612e-04 1.26476279e-02 1.08288210e-02
      1.10331783e-02 -5.28934598e-03 4.26990810e-05 -1.45502929e-02
      2.58185063e-03 8.76818877e-03 6.50105672e-03 2.88372720e-03
      -3.78126651e-03 -1.11449333e-02 3.67806223e-03 1.80993676e-02
      1.18325744e-02 3.38091813e-02 1.61493327e-02 -1.52976578e-02
      -6.64741779e-03 9.59245395e-03 1.51167316e-02 1.14759179e-02
      -1.42025365e-03 -1.26605956e-02 -2.85458728e-03 -2.03555822e-03
      -1.28731690e-02 -2.85783480e-03 1.40713630e-02 -1.70821082e-02
      4.90810489e-03 6.74950611e-03 1.13655394e-02 6.56489097e-03
      1.11197550e-02 -2.04425701e-03 2.74242996e-03 3.64550331e-04
      -1.59020778e-02 -9.72385611e-03 2.05016918e-02 -1.52591877e-02
      4.55805520e-03 1.11393752e-02 1.96855180e-02 1.74012352e-02
      -8.52797832e-03 -9.94718168e-03 -2.51932745e-03 2.77119526e-03
      -2.12382805e-02 1.84085574e-02 2.80693229e-02 -8.17354117e-03
      1.87939056e-03 1.46309305e-02 1.72308516e-02 6.97817653e-03
      1.92613173e-02 8.85486137e-04 1.48024531e-02 7.57628120e-03
      -2.24947426e-02 6.94658142e-03 1.86179373e-02 -1.31954011e-02
      1.95144080e-02 2.05356628e-02 2.21042763e-02 2.48022564e-02
      7.13114277e-04 -4.88648657e-03 -3.90533125e-03 7.65980949e-05
      -1.12653067e-02 2.41154688e-03 -9.87876020e-03 -4.00260277e-02
      -7.22903479e-03 4.45606047e-03 1.03845904e-02 1.44789936e-02
      1.12629151e-02 -2.38488521e-03 1.02169393e-02 8.18603765e-03
      -2.72266380e-03 7.24823866e-03 -1.01068085e-02 -3.09687890e-02
      3.69745377e-03 1.65331829e-02 6.95931818e-03 5.85864298e-03
      9.85305849e-03 6.74113957e-03 1.17009850e-02 8.10430944e-03
      -1.64603367e-02 1.58856763e-03 1.42969470e-03 -2.37633213e-02
      1.20904176e-02 9.58666392e-03 8.48995335e-03 1.19064050e-02
      1.44998813e-02 7.00229499e-03 3.10698040e-02 3.05389315e-02
      -8.55756458e-04 1.05899936e-02 -1.69805624e-02 -2.25017592e-02
      8.76625348e-03 2.00212523e-02 9.04214010e-03 1.17210783e-02
      6.56481041e-03 -8.63594003e-04 1.03942621e-02 6.69234141e-04
      -1.00663388e-02 -1.94065459e-02 -1.92870069e-02 -1.96797345e-02
      5.68217086e-03 1.94085594e-02 1.11590195e-02 5.57468785e-03
      4.19015530e-03 -2.94342311e-03 1.27094705e-02 1.47762513e-02
      -1.02644358e-02 -2.36307792e-02 -2.23494805e-02 -2.11832672e-02
      -7.77963432e-04 1.52870705e-02 1.00353044e-02 4.83812019e-03
      -4.47252952e-03 -3.67372460e-03 1.93711556e-02 1.82972271e-02
      -7.07584480e-03 -6.23625983e-03 -2.07122639e-02 -1.28644994e-02
      2.05725827e-03 2.42395028e-02 1.43071450e-02 4.77376115e-03
      -7.48259306e-04 -2.01689289e-03 2.49802265e-02 2.41544023e-02
      -6.28044689e-03 7.68175675e-03 -2.80512106e-02 -3.06185652e-02
      -1.42108824e-03 1.88579466e-02 6.04140619e-03 -1.12939405e-03
      9.27252881e-03 1.50760803e-02 3.11267786e-02 2.87990775e-02
      8.85964744e-03 -8.90529342e-03 -2.06357846e-03 -2.32586060e-02
      -9.68049373e-03 3.53254518e-03 9.36060213e-04 4.85653058e-03
      6.12799171e-03 2.58909445e-02 3.53152603e-02 2.96875127e-02
      -2.97728088e-03 -1.56801771e-02 -6.35082647e-03 -2.38667633e-02
      -3.46300863e-02 -8.71494971e-03 -1.89101696e-02 -1.79372150e-02
      7.83776678e-03 2.05112081e-02 3.79220396e-02 2.73967739e-02
      7.16572441e-03 1.16079431e-02 3.33404448e-03 -1.33520663e-02
      -2.58060545e-03 2.25755144e-02 1.21443952e-02 1.04673207e-02
      3.79026053e-03 2.60611903e-02 3.56104709e-02 1.85069088e-02
      -2.26187031e-03 -7.35258777e-03 -1.02763588e-03 -1.79468077e-02
      -1.77273769e-02 1.79709941e-02 -2.66055833e-03 -1.08127184e-04
      -9.34017077e-03 1.67292003e-02 2.49682143e-02 2.40601320e-02
      -9.27839987e-03 -5.79413865e-03 1.76622551e-02 -1.08648534e-03
      -9.27453768e-03 9.31172725e-03 -1.22041861e-03 -9.29906592e-03
      -1.08037936e-02 -1.32910954e-02 1.66783705e-02 1.96543802e-02
      -9.81508382e-03 -1.15246826e-03 2.97654122e-02 2.21619941e-02
      1.58470646e-02 2.12060865e-02 1.59593299e-02 -7.73274247e-03
      -4.97069629e-03 1.66412797e-02 1.97728630e-02 1.31913843e-02
      -7.81447254e-03 1.25533959e-03 1.47746988e-02 1.16976416e-02
      5.52298443e-04 2.12702025e-02 1.15268575e-02 -3.03315069e-03
      -5.99029846e-03 -1.02847731e-02 2.20744181e-02 3.27537842e-02
      8.74674879e-03 1.30673815e-02 1.81126017e-02 1.25753339e-02
      8.98707565e-03 1.19307572e-02 6.78728800e-03 -1.27045822e-03
      -1.09326774e-02 -1.82551462e-02 -1.24339072e-03 1.66076608e-03
      -2.22934168e-02 -1.51064957e-03 1.77320447e-02 -9.23823472e-03
      -2.06522178e-03 5.57034882e-03 1.03828823e-02 6.73446199e-03
      1.04349107e-03 1.41536037e-03 9.79706366e-03 4.66951076e-03
      -2.79717445e-02 5.18436404e-03 1.87189709e-02 -2.59982031e-02
      -8.73103645e-03 5.61676396e-04 5.49817272e-03 1.58221964e-02
      -1.49597572e-02 -1.82304904e-02 8.78984760e-03 8.60717800e-03
      -3.25586530e-03 1.25689283e-02 1.73006877e-02 -5.94733329e-03
      -7.86399096e-03 2.85794819e-03 5.62257599e-03 4.14864300e-03
      4.73959232e-03 -1.05302269e-02 8.41167755e-03 -3.85525590e-03
      -1.06143076e-02 2.15499196e-02 2.89555974e-02 -2.29674708e-02
      -7.41585670e-03 1.01368604e-02 1.53910564e-02 1.44243920e-02
      6.86687091e-03 9.18236654e-03 1.21814450e-02 -2.00030883e-03
      -2.14295443e-02 -7.47926161e-03 3.30697163e-03 -2.27864273e-02
      3.63624049e-03 7.09247775e-03 1.39717599e-02 1.51966801e-02
      1.52792055e-02 5.22637973e-03 2.75346357e-02 9.96124651e-03
      -1.30023025e-02 1.39841437e-03 8.38977937e-03 -1.18144006e-02
      1.20606739e-02 1.25546455e-02 1.93130709e-02 1.85949039e-02
      7.22474745e-03 -4.48869029e-03 9.06239171e-03 4.28562984e-03
      -1.08120013e-02 1.53248012e-02 5.05057117e-03 -1.14368163e-02
      9.54026263e-03 1.66765060e-02 2.59246193e-02 2.10049953e-02
      8.07204191e-03 1.14137016e-03 2.34022364e-02 1.08100623e-02
      -2.10343413e-02 1.63034480e-02 7.72914430e-03 -8.66738986e-03
      1.26025863e-02 1.35383848e-02 2.03853361e-02 3.65028605e-02
      8.43976624e-03 6.14704937e-03 1.35873947e-02 1.14544574e-03
      -7.30066095e-03 -1.58203971e-02 -1.09523730e-02 -1.71044506e-02
      6.24797400e-03 5.29096974e-03 1.10424347e-02 9.29192267e-03
      3.23633687e-03 1.45634860e-02 8.01321305e-03 9.99635644e-03
      1.46857905e-03 -7.12189218e-03 -1.47835468e-04 -1.51752457e-02
      6.42170385e-03 1.63101293e-02 1.93461049e-02 1.66843012e-02
      4.40366706e-03 3.41466442e-03 2.56395582e-02 2.26806849e-03
      -2.44485755e-02 3.27495486e-03 -6.88838772e-03 -1.49650984e-02
      -3.38134094e-04 6.18771696e-03 8.32107849e-03 1.26515627e-02
      5.84672764e-03 7.72437546e-03 1.63001046e-02 7.67593598e-03
      -8.77035595e-03 -5.03332494e-03 -9.11170151e-04 -1.95303448e-02
      2.91633978e-03 2.31178273e-02 2.28497963e-02 1.43144066e-02
      -5.80251275e-04 1.51190665e-02 5.36663644e-03 3.42547288e-03
      -7.27183372e-03 -4.95034829e-03 -6.56154152e-05 -2.29411367e-02
      -4.60748980e-03 1.34384930e-02 1.51622789e-02 1.36262374e-02
      1.94217674e-02 2.85400655e-02 1.20708905e-02 3.12364521e-03
      -1.58211216e-02 -7.23235868e-03 -1.19246161e-02 -2.88931001e-02
      -1.88678149e-02 2.24437797e-03 9.18476470e-03 1.18648103e-02
      2.34731031e-03 9.86878108e-03 1.36967581e-02 -6.32614130e-03
      -1.55198500e-02 -1.55635094e-02 -1.05646229e-03 -1.55587289e-02
      3.76709923e-03 2.42217034e-02 1.75244454e-02 9.97012388e-03
      2.66124867e-02 2.32147388e-02 2.56846491e-02 4.34402190e-03
      -2.09962502e-02 -1.99182238e-02 -2.50970926e-02 -2.91137490e-02
      -1.96015686e-02 7.19017582e-03 1.11096045e-02 1.76317021e-02
      9.80475172e-03 2.12206226e-02 1.04863020e-02 1.22144697e-02
      -1.69077832e-02 -1.83126014e-02 -6.21464290e-03 -3.26565690e-02
      -1.60727035e-02 -3.04470630e-03 -2.79610534e-03 4.81195515e-03
      -1.60477366e-02 2.68540159e-02 2.44751554e-02 3.04552186e-02
      4.39821556e-03 -4.41677030e-03 6.60029100e-03 -1.00335451e-02
      -7.51817692e-03 7.83032365e-03 3.88070825e-03 -1.48589518e-02
      1.86448600e-02 2.13030092e-02 1.42524512e-02 9.78157762e-03
      -2.59203967e-02 -1.97372306e-02 -1.27152167e-02 -3.16696987e-02
      -7.79074151e-03 1.72204175e-03 2.82425084e-03 1.22172199e-02
      -3.30812763e-03 3.03461328e-02 2.63918415e-02 1.04119917e-02
      -7.87006877e-03 -1.02124666e-03 -6.54625520e-03 -1.36681255e-02
      -1.52350508e-03 1.82487201e-02 1.57727569e-03 -2.03424953e-02
      9.23173619e-04 -4.26281523e-03 1.45251409e-03 -7.22661847e-03
      -2.53001153e-02 -1.75104365e-02 -1.77447367e-02 -1.66189857e-02
      5.49579319e-03 1.98161323e-02 1.61804054e-02 1.39248359e-03
      5.10198949e-03 -9.36938729e-03 6.44492405e-03 -4.92278999e-03
      -1.87593289e-02 9.58927535e-03 -2.48962343e-02 -2.81490088e-02
      1.55020384e-02 2.47502774e-02 1.90394465e-02 1.40513759e-02
      4.94763209e-03 7.76268949e-04 3.46094533e-03 -1.57116707e-02
      -2.77800374e-02 -1.59243047e-02 -8.86854250e-03 -1.34358592e-02
      3.13193607e-03 2.15536859e-02 1.97217539e-02 3.18229059e-03
      6.46599289e-03 7.78950332e-03 1.72895901e-02 1.03099714e-03
      -1.46632437e-02 4.67184838e-03 -1.08322678e-02 -1.79010779e-02
      3.06866039e-03 1.15877176e-02 1.06696887e-02 7.82480650e-03
      3.87544278e-03 3.91481724e-03 8.89083371e-03 -2.13154592e-03
      -9.80521459e-03 -4.40908829e-03 -2.30846982e-02 -3.18829715e-02
      -2.20500096e-03 1.01856831e-02 9.74415150e-03 1.26295080e-02
      1.69476215e-02 3.74706998e-03 5.37512405e-03 8.75240564e-03
      -1.30633805e-02 -3.07889143e-03 -8.77605285e-03 -3.19582559e-02
      -2.56305747e-02 -2.48055207e-03 8.52775946e-03 2.35961415e-02
      1.46379787e-03 6.66473294e-03 1.30321970e-02 6.17614901e-03
      -1.20594138e-02 1.14232337e-03 -8.98060761e-03 -1.95120629e-02
      -6.85103144e-03 -4.31864709e-03 1.39464810e-03 6.15757471e-03
      3.90885584e-03 -8.64375150e-04 4.57031140e-03 9.52926837e-03
      -5.04893996e-03 3.71694588e-03 -1.31199555e-02 -4.14401740e-02
      -5.78822894e-03 2.26174248e-03 -1.79045519e-03 9.21716262e-03
      4.06773947e-03 2.91975273e-04 2.44662957e-03 1.84245314e-02
